{"learner":{"attributes":{"scikit_learn":"{\"_estimator_type\": \"classifier\"}"},"feature_names":[],"feature_types":[],"gradient_booster":{"model":{"cats":{"enc":[],"feature_segments":[],"sorted_idx":[]},"gbtree_model_param":{"num_parallel_tree":"1","num_trees":"300"},"iteration_indptr":[0,1,2,3,4,5,6,7,8,9,10,11,12,13,14,15,16,17,18,19,20,21,22,23,24,25,26,27,28,29,30,31,32,33,34,35,36,37,38,39,40,41,42,43,44,45,46,47,48,49,50,51,52,53,54,55,56,57,58,59,60,61,62,63,64,65,66,67,68,69,70,71,72,73,74,75,76,77,78,79,80,81,82,83,84,85,86,87,88,89,90,91,92,93,94,95,96,97,98,99,100,101,102,103,104,105,106,107,108,109,110,111,112,113,114,115,116,117,118,119,120,121,122,123,124,125,126,127,128,129,130,131,132,133,134,135,136,137,138,139,140,141,142,143,144,145,146,147,148,149,150,151,152,153,154,155,156,157,158,159,160,161,162,163,164,165,166,167,168,169,170,171,172,173,174,175,176,177,178,179,180,181,182,183,184,185,186,187,188,189,190,191,192,193,194,195,196,197,198,199,200,201,202,203,204,205,206,207,208,209,210,211,212,213,214,215,216,217,218,219,220,221,222,223,224,225,226,227,228,229,230,231,232,233,234,235,236,237,238,239,240,241,242,243,244,245,246,247,248,249,250,251,252,253,254,255,256,257,258,259,260,261,262,263,264,265,266,267,268,269,270,271,272,273,274,275,276,277,278,279,280,281,282,283,284,285,286,287,288,289,290,291,292,293,294,295,296,297,298,299,300],"tree_info":[0,0,0,0,0,0,0,0,0,0,0,0,0,0,0,0,0,0,0,0,0,0,0,0,0,0,0,0,0,0,0,0,0,0,0,0,0,0,0,0,0,0,0,0,0,0,0,0,0,0,0,0,0,0,0,0,0,0,0,0,0,0,0,0,0,0,0,0,0,0,0,0,0,0,0,0,0,0,0,0,0,0,0,0,0,0,0,0,0,0,0,0,0,0,0,0,0,0,0,0,0,0,0,0,0,0,0,0,0,0,0,0,0,0,0,0,0,0,0,0,0,0,0,0,0,0,0,0,0,0,0,0,0,0,0,0,0,0,0,0,0,0,0,0,0,0,0,0,0,0,0,0,0,0,0,0,0,0,0,0,0,0,0,0,0,0,0,0,0,0,0,0,0,0,0,0,0,0,0,0,0,0,0,0,0,0,0,0,0,0,0,0,0,0,0,0,0,0,0,0,0,0,0,0,0,0,0,0,0,0,0,0,0,0,0,0,0,0,0,0,0,0,0,0,0,0,0,0,0,0,0,0,0,0,0,0,0,0,0,0,0,0,0,0,0,0,0,0,0,0,0,0,0,0,0,0,0,0,0,0,0,0,0,0,0,0,0,0,0,0,0,0,0,0,0,0,0,0,0,0,0,0,0,0,0,0,0,0,0,0,0,0,0,0,0,0,0,0,0,0],"trees":[{"base_weights":[7.68738E-4,1.3530262E0,-1.3443867E0,4.9262786E-1,1.5738986E0,-1.9999084E-1,-5.1810986E-1,1.7436068E-1,1.4847896E0,1.2119392E0,1.7105807E0,-1.9996534E-1,2.2262655E-1,-3.8825163E-1,9.143681E-1,1.5940492E0,6.893617E-1,8.685535E-1,1.5929929E0,1.7548745E0,1.1882988E0,1.6694322E0,-1.9995606E-1,-1.3526925E-1,-1.3677465E0,1.1396444E0,2.8902572E-1,1.6765828E0,1.3105229E0,9.360614E-1,-5.185185E-1,5.001638E-1,1.6613756E0,1.706721E0,1.1558753E0,1.6727406E0,1.939064E0,4.5947593E-1,1.8225292E0,1.546337E0,1.9232204E0,-5.587767E-1,3.6401186E-2,-1.5518672E0,-1.0870337E0,8.232804E-1,1.242624E0,-7.776428E-2,8.275246E-1,1.477171E0,1.7288792E0,1.5838434E0,1E0,1.0756303E0,-5E-1,5.846154E-1,-1.2079208E0,7.251278E-1,-6.2035227E-1,1.6978762E0,8.7258685E-1,1.6207536E0,1.922545E-1,9.716064E-1,1.7659298E0,1.8150417E0,1.4843098E0,1.9398214E0,1.3333334E-1,5.958784E-1,-4.680851E-1,1.8454422E0,8.3870965E-1,1.6251199E0,3.074205E-1,1.9251513E0,1.2222222E0,-3.4204043E-2,-9.515261E-2,1.9924314E-1,-2.7248282E-2,-1.6120319E-1,1.2903226E-2,1.8987343E-1,-1.3073264E-1,8.8988766E-2,-2.4561403E-2,1.9936407E-1,1.0319432E-1,2.7210886E-2,-9.451477E-2,3.2537963E-2,1.1722054E-1,1.5641548E-1,8.201439E-2,1.9926606E-1,1.632184E-1,1.6074535E-1,-0E0,1.1987281E-1,-1.6216217E-2,-3.636364E-2,1.1632048E-1,-9.6E-2,4.6153847E-2,1.0833334E-1,-6.666667E-2,3.3333335E-2,-1.3548388E-1,8.323178E-2,-0E0,-3.1563424E-2,-1.2138728E-1,1.3842975E-1,1.7645474E-1,1.2888889E-1,-1.6842106E-1,1.6570587E-1,1.3200796E-1,7.832898E-2,1.2444871E-1,-0E0,1.784494E-1,1.8654627E-1,1.6120134E-1,1.2120575E-1,1.5657805E-1,1.9550343E-1,1.875477E-1,-4.0000003E-2,6.666667E-2,7.0749395E-2,-1.2987013E-2,-1.3057852E-1,-1.30718965E-2,1.8647727E-1,1.3710693E-1,-8.888889E-2,1.18987344E-1,1.7742664E-1,1.4226586E-1,-5.5737704E-2,4.7219306E-2,1.9267109E-1,1.1724138E-1,-1.818182E-2,1.586207E-1],"categories":[],"categories_nodes":[],"categories_segments":[],"categories_sizes":[],"default_left":[0,0,0,0,0,0,0,0,0,0,0,0,0,0,0,0,0,0,0,0,0,0,0,0,0,0,0,0,0,0,0,0,0,0,0,0,0,0,0,0,0,0,0,0,0,0,0,0,0,0,0,0,0,0,0,0,0,0,0,0,0,0,0,0,0,0,0,0,0,0,0,0,0,0,0,0,0,0,0,0,0,0,0,0,0,0,0,0,0,0,0,0,0,0,0,0,0,0,0,0,0,0,0,0,0,0,0,0,0,0,0,0,0,0,0,0,0,0,0,0,0,0,0,0,0,0,0,0,0,0,0,0,0,0,0,0,0,0,0,0,0,0,0,0,0,0,0],"id":0,"left_children":[1,3,5,7,9,-1,11,13,15,17,19,-1,21,23,25,27,29,31,33,35,37,39,-1,41,43,45,47,49,51,53,55,57,59,61,63,65,67,69,71,73,75,77,79,81,83,85,87,89,91,93,95,97,99,101,103,105,107,109,111,113,115,117,-1,119,121,123,125,127,129,131,133,135,137,139,141,143,145,-1,-1,-1,-1,-1,-1,-1,-1,-1,-1,-1,-1,-1,-1,-1,-1,-1,-1,-1,-1,-1,-1,-1,-1,-1,-1,-1,-1,-1,-1,-1,-1,-1,-1,-1,-1,-1,-1,-1,-1,-1,-1,-1,-1,-1,-1,-1,-1,-1,-1,-1,-1,-1,-1,-1,-1,-1,-1,-1,-1,-1,-1,-1,-1,-1,-1,-1,-1,-1,-1],"loss_changes":[1.419745E5,7.3960312E3,2.1192477E4,2.5108433E3,1.5301953E3,0E0,1.8998113E4,2.507538E3,1.6674268E2,1.1099121E3,5.179531E2,0E0,3.7110906E4,8.4770734E2,3.6612134E2,3.7519043E1,7.051153E1,1.3045652E3,1.9809473E2,3.1021484E2,8.1293896E2,2.1542578E2,0E0,1.9781078E2,3.4608765E1,6.1268066E1,1.3639978E2,1.111792E1,3.1282898E1,3.972177E1,3.1506542E1,7.700372E2,3.9329834E1,5.6098633E1,9.2037476E1,3.817422E2,8.46875E0,1.0408995E2,1.9664307E1,4.5948926E2,7.324219E-1,6.647484E1,1.170701E3,4.2859924E1,1.8763678E2,3.3858734E1,2.2586548E2,1.2513679E2,4.8037643E1,1.4676514E1,2.3089355E1,7.6378784E0,4.2689987E1,2.2921661E1,8.404615E0,1.086282E1,6.1691666E0,1.9765833E2,9.20345E1,2.5860107E1,7.109065E1,2.2796875E1,0E0,3.205481E1,6.3026123E0,8.056641E1,1.350498E2,2.5820312E0,1.3333333E0,5.807106E1,2.971549E1,5.868164E0,1.5162741E1,1.3126855E2,4.058925E1,4.0722656E-1,4.887844E0,0E0,0E0,0E0,0E0,0E0,0E0,0E0,0E0,0E0,0E0,0E0,0E0,0E0,0E0,0E0,0E0,0E0,0E0,0E0,0E0,0E0,0E0,0E0,0E0,0E0,0E0,0E0,0E0,0E0,0E0,0E0,0E0,0E0,0E0,0E0,0E0,0E0,0E0,0E0,0E0,0E0,0E0,0E0,0E0,0E0,0E0,0E0,0E0,0E0,0E0,0E0,0E0,0E0,0E0,0E0,0E0,0E0,0E0,0E0,0E0,0E0,0E0,0E0,0E0,0E0,0E0,0E0,0E0,0E0,0E0],"parents":[2147483647,0,0,1,1,2,2,3,3,4,4,6,6,7,7,8,8,9,9,10,10,12,12,13,13,14,14,15,15,16,16,17,17,18,18,19,19,20,20,21,21,23,23,24,24,25,25,26,26,27,27,28,28,29,29,30,30,31,31,32,32,33,33,34,34,35,35,36,36,37,37,38,38,39,39,40,40,41,41,42,42,43,43,44,44,45,45,46,46,47,47,48,48,49,49,50,50,51,51,52,52,53,53,54,54,55,55,56,56,57,57,58,58,59,59,60,60,61,61,63,63,64,64,65,65,66,66,67,67,68,68,69,69,70,70,71,71,72,72,73,73,74,74,75,75,76,76],"right_children":[2,4,6,8,10,-1,12,14,16,18,20,-1,22,24,26,28,30,32,34,36,38,40,-1,42,44,46,48,50,52,54,56,58,60,62,64,66,68,70,72,74,76,78,80,82,84,86,88,90,92,94,96,98,100,102,104,106,108,110,112,114,116,118,-1,120,122,124,126,128,130,132,134,136,138,140,142,144,146,-1,-1,-1,-1,-1,-1,-1,-1,-1,-1,-1,-1,-1,-1,-1,-1,-1,-1,-1,-1,-1,-1,-1,-1,-1,-1,-1,-1,-1,-1,-1,-1,-1,-1,-1,-1,-1,-1,-1,-1,-1,-1,-1,-1,-1,-1,-1,-1,-1,-1,-1,-1,-1,-1,-1,-1,-1,-1,-1,-1,-1,-1,-1,-1,-1,-1,-1,-1,-1,-1],"split_conditions":[-3.467444E-1,-3.4038156E-1,-1.17354235E-2,1.1877293E-1,3.0658257E-1,-1.9999084E-1,-2.0846237E-1,-4.734303E-1,-3.3272088E-2,-4.734303E-1,1.7939413E0,-1.9996534E-1,-8.7533385E-2,-3.3272088E-2,4.823303E-2,1.5067942E-1,8.604609E-1,1.1877293E-1,4.823303E-2,1.1877293E-1,1.1877293E-1,1.1877293E-1,-1.9995606E-1,-1.976839E0,-1.8374648E0,-1.976839E0,1.5340223E0,-1.976839E0,7.128959E-1,-1.0064969E0,7.128959E-1,-3.3272088E-2,1.5849289E0,1.1877293E-1,1.1877293E-1,9.8645186E-1,2.3020537E0,1.1751434E0,1.5849289E0,-3.3272088E-2,1.9947144E0,2.5312582E-1,-1.6595258E0,4.980837E0,-1.1609726E0,5.814787E-1,-1.6595258E0,1.2775897E0,7.716286E-1,2.4921727E0,-1.6595258E0,2.0971608E0,1.3800361E0,-1.5584232E0,1.9287178E-1,1.9727458E0,9.7025055E-1,2.746786E-1,1.5067942E-1,-1.976839E0,-3.3272088E-2,2.746786E-1,1.922545E-1,1.5340223E0,-1.5797296E0,4.823303E-2,-1.976839E0,2.5312582E-1,1.9942214E0,2.4921727E0,-1.976839E0,-6.789838E-1,1.806608E0,-1.5678431E-1,2.8190117E-2,1.4960896E0,-1.5678431E-1,-3.4204043E-2,-9.515261E-2,1.9924314E-1,-2.7248282E-2,-1.6120319E-1,1.2903226E-2,1.8987343E-1,-1.3073264E-1,8.8988766E-2,-2.4561403E-2,1.9936407E-1,1.0319432E-1,2.7210886E-2,-9.451477E-2,3.2537963E-2,1.1722054E-1,1.5641548E-1,8.201439E-2,1.9926606E-1,1.632184E-1,1.6074535E-1,-0E0,1.1987281E-1,-1.6216217E-2,-3.636364E-2,1.1632048E-1,-9.6E-2,4.6153847E-2,1.0833334E-1,-6.666667E-2,3.3333335E-2,-1.3548388E-1,8.323178E-2,-0E0,-3.1563424E-2,-1.2138728E-1,1.3842975E-1,1.7645474E-1,1.2888889E-1,-1.6842106E-1,1.6570587E-1,1.3200796E-1,7.832898E-2,1.2444871E-1,-0E0,1.784494E-1,1.8654627E-1,1.6120134E-1,1.2120575E-1,1.5657805E-1,1.9550343E-1,1.875477E-1,-4.0000003E-2,6.666667E-2,7.0749395E-2,-1.2987013E-2,-1.3057852E-1,-1.30718965E-2,1.8647727E-1,1.3710693E-1,-8.888889E-2,1.18987344E-1,1.7742664E-1,1.4226586E-1,-5.5737704E-2,4.7219306E-2,1.9267109E-1,1.1724138E-1,-1.818182E-2,1.586207E-1],"split_indices":[3,2,5,1,2,0,2,13,11,13,11,0,2,11,0,0,0,1,0,1,1,1,0,17,14,17,10,17,9,3,9,11,0,1,1,12,0,0,0,11,0,0,17,8,14,16,17,0,0,5,17,0,0,4,0,5,0,2,0,17,11,2,0,10,4,0,17,0,16,5,17,17,16,12,17,4,12,0,0,0,0,0,0,0,0,0,0,0,0,0,0,0,0,0,0,0,0,0,0,0,0,0,0,0,0,0,0,0,0,0,0,0,0,0,0,0,0,0,0,0,0,0,0,0,0,0,0,0,0,0,0,0,0,0,0,0,0,0,0,0,0,0,0,0,0,0,0],"split_type":[0,0,0,0,0,0,0,0,0,0,0,0,0,0,0,0,0,0,0,0,0,0,0,0,0,0,0,0,0,0,0,0,0,0,0,0,0,0,0,0,0,0,0,0,0,0,0,0,0,0,0,0,0,0,0,0,0,0,0,0,0,0,0,0,0,0,0,0,0,0,0,0,0,0,0,0,0,0,0,0,0,0,0,0,0,0,0,0,0,0,0,0,0,0,0,0,0,0,0,0,0,0,0,0,0,0,0,0,0,0,0,0,0,0,0,0,0,0,0,0,0,0,0,0,0,0,0,0,0,0,0,0,0,0,0,0,0,0,0,0,0,0,0,0,0,0,0],"sum_hessian":[7.8049E4,3.892175E4,3.912725E4,7.95125E3,3.09705E4,2.181725E4,1.731E4,6.021E3,1.93025E3,8.492E3,2.24785E4,5.76925E3,1.154075E4,3.42075E3,2.60025E3,1.69625E3,2.34E2,4.4685E3,4.0235E3,2.0719E4,1.7595E3,6.99E3,4.55075E3,2.7195E3,7.0125E2,1.911E3,6.8925E2,1.31E3,3.8625E2,1.945E2,3.95E1,3.052E3,1.4165E3,3.1905E3,8.33E2,1.433625E4,6.38275E3,8.195E2,9.4E2,4.71175E3,2.27825E3,7.8375E2,1.93575E3,4.2075E2,2.805E2,4.715E2,1.4395E3,4.105E2,2.7875E2,2.7825E2,1.03175E3,2.0325E2,1.83E2,1.775E2,1.7E1,1.525E1,2.425E1,2.542E3,5.1E2,1.35275E3,6.375E1,2.28775E3,9.0275E2,6.4175E2,1.9125E2,8.163E3,6.17325E3,6.38E3,2.75E0,7.1475E2,1.0475E2,9.1775E2,2.225E1,4.42975E3,2.82E2,2.27025E3,8E0,5.0625E2,2.775E2,2.6325E2,1.6725E3,4.0625E2,1.45E1,1.875E1,2.6175E2,4.44E2,2.75E1,3.135E2,1.126E3,2.93E2,1.175E2,1.1425E2,1.645E2,2.445E2,3.375E1,2.715E2,7.6025E2,2.0025E2,3E0,1.5625E2,2.675E1,1E1,1.675E2,1.15E1,5.5E0,1.1E1,4.25E0,2E0,2.225E1,2.2145E3,3.275E2,3.38E2,1.72E2,2.41E2,1.11175E3,5.525E1,8.5E0,2.03725E3,2.505E2,3.82E2,2.5975E2,2E0,1.8925E2,6.5325E3,1.6305E3,1.4255E3,4.74775E3,5.13625E3,1.24375E3,1.5E0,1.25E0,6.195E2,9.525E1,2.925E1,7.55E1,8.79E2,3.875E1,3.5E0,1.875E1,2.54625E3,1.8835E3,4.475E1,2.3725E2,2.264E3,6.25E0,1.75E0,6.25E0],"tree_param":{"num_deleted":"0","num_feature":"18","num_nodes":"147","size_leaf_vector":"1"}},{"base_weights":[-3.9839852E-4,1.22515E0,-1.2219406E0,8.511693E-1,1.7143054E0,-1.8186541E-1,-4.710277E-1,2.3974355E-1,1.3565735E0,1.5110936E0,1.7644004E0,-1.8184413E-1,2.0162524E-1,-4.2451102E-1,9.597162E-1,6.7559415E-1,1.5204785E0,1.6047451E0,1.1151296E0,1.7882543E0,1.686543E0,1.5170124E0,-1.8183644E-1,-7.7120525E-1,9.8436356E-1,6.6696423E-1,1.6058801E0,9.1570073E-1,-5.21486E-2,1.5895745E0,1.1097302E0,1.5158983E0,1.7314832E0,8.914619E-1,1.5895104E0,1.74393E0,1.8007749E0,1.5315264E0,1.7321634E0,1.3082035E0,1.7690434E0,-1.5984253E0,-5.4487926E-1,2.1449095E-1,1.1681259E0,-9.923051E-1,8.752374E-1,1.6105993E0,-8.5276715E-2,7.5991386E-1,1.4903132E0,-2.6097912E-1,1.1149694E0,1.3888979E0,1.6603527E0,6.38681E-1,1.3043984E0,1.0430515E0,1.6175302E0,1.7906586E0,1.6155219E0,-1.12529784E-1,1.1404662E0,4.476164E-1,1.6203899E0,1.7463518E0,1.0800107E0,1.8037547E-1,1.673433E-1,1.5872939E0,1.2447629E0,1.4968822E0,1.7392435E0,8.8011026E-1,1.5857449E0,1.7934875E-1,1.6600727E0,-1.7111675E-1,-1.3441934E-1,-8.508614E-2,-1.40807E-2,-3.5061803E-2,7.531495E-2,6.007066E-2,1.307817E-1,-1.4159581E-1,-3.144274E-2,4.2088587E-2,1.0167122E-1,1.3603841E-1,1.6601528E-1,8.439571E-2,2.7174566E-2,-7.741898E-2,1.5045436E-1,-4.840945E-2,1.8942256E-2,7.159241E-2,1.6397703E-1,1.3072594E-1,1.6678998E-1,1.6262223E-1,1.7639834E-1,4.8828352E-2,1.4482738E-1,1.0994816E-1,1.5412085E-1,1.1887007E-1,-4.9930274E-2,1.670283E-1,1.3860296E-1,1.0382422E-1,1.7979026E-1,1.712964E-1,1.4971234E-1,-8.2410894E-2,4.3856505E-2,1.2692793E-1,-1.9810828E-3,1.2213564E-1,-6.1881967E-2,1.6535172E-1,5.560365E-2,1.6593105E-1,1.7677723E-1,6.224265E-3,1.4997755E-1,1.0299046E-1,1.605175E-1,1.3114281E-1,-4.266647E-2,9.180655E-2,1.5744728E-1,1.7442587E-1,1.5020607E-1,5.5857014E-2,1.6094926E-1,1.642053E-1,9.951145E-2,3.3055138E-2,1.6628861E-1],"categories":[],"categories_nodes":[],"categories_segments":[],"categories_sizes":[],"default_left":[0,0,0,0,0,0,0,0,0,0,0,0,0,0,0,0,0,0,0,0,0,0,0,0,0,0,0,0,0,0,0,0,0,0,0,0,0,0,0,0,0,0,0,0,0,0,0,0,0,0,0,0,0,0,0,0,0,0,0,0,0,0,0,0,0,0,0,0,0,0,0,0,0,0,0,0,0,0,0,0,0,0,0,0,0,0,0,0,0,0,0,0,0,0,0,0,0,0,0,0,0,0,0,0,0,0,0,0,0,0,0,0,0,0,0,0,0,0,0,0,0,0,0,0,0,0,0,0,0,0,0,0,0,0,0,0,0,0,0,0,0],"id":1,"left_children":[1,3,5,7,9,-1,11,13,15,17,19,-1,21,23,25,27,29,31,33,35,37,39,-1,41,43,45,47,49,51,53,55,57,59,61,63,65,67,69,71,73,75,77,79,81,83,85,87,89,-1,91,93,95,97,99,101,103,105,107,109,111,113,115,117,119,121,123,125,-1,-1,127,129,131,133,135,137,-1,139,-1,-1,-1,-1,-1,-1,-1,-1,-1,-1,-1,-1,-1,-1,-1,-1,-1,-1,-1,-1,-1,-1,-1,-1,-1,-1,-1,-1,-1,-1,-1,-1,-1,-1,-1,-1,-1,-1,-1,-1,-1,-1,-1,-1,-1,-1,-1,-1,-1,-1,-1,-1,-1,-1,-1,-1,-1,-1,-1,-1,-1,-1,-1,-1],"loss_changes":[1.1599336E5,7.0739062E3,1.7386367E4,6.773626E3,1.6791797E2,0E0,1.5574253E4,4.745177E3,1.3384473E3,1.2135791E2,2.1941406E1,0E0,3.0459059E4,2.5216292E3,8.995918E2,4.0716663E2,2.7273242E2,2.7591309E1,6.632855E1,2.5585938E0,1.9757812E1,3.63042E2,0E0,7.7466235E2,1.4400171E2,1.1338234E3,1.8590088E1,1.5569702E2,1.4139987E2,1.1525195E2,1.271803E2,7.450903E1,4.647461E0,1.09172485E2,6.4434814E0,1.8017578E0,7.8125E-3,9.685425E0,1.4624023E0,4.501704E2,5.3935547E0,2.3190918E1,4.021986E2,6.044606E1,6.444287E1,1.0468878E2,1.8683813E2,1.6108643E1,0E0,5.6401367E1,1.3172852E1,4.95232E1,1.7267326E1,4.711377E1,1.8757812E1,4.923709E1,4.619348E1,6.4239075E1,1.3600586E1,2.0488281E0,1.8369751E0,3.4709984E1,5.227423E1,6.312945E0,6.046692E0,1.3242188E0,4.587719E0,0E0,0E0,4.3947754E0,1.4304138E1,2.079071E0,1.9140625E-1,3.502135E2,7.50083E1,0E0,1.654541E0,0E0,0E0,0E0,0E0,0E0,0E0,0E0,0E0,0E0,0E0,0E0,0E0,0E0,0E0,0E0,0E0,0E0,0E0,0E0,0E0,0E0,0E0,0E0,0E0,0E0,0E0,0E0,0E0,0E0,0E0,0E0,0E0,0E0,0E0,0E0,0E0,0E0,0E0,0E0,0E0,0E0,0E0,0E0,0E0,0E0,0E0,0E0,0E0,0E0,0E0,0E0,0E0,0E0,0E0,0E0,0E0,0E0,0E0,0E0,0E0,0E0,0E0,0E0,0E0],"parents":[2147483647,0,0,1,1,2,2,3,3,4,4,6,6,7,7,8,8,9,9,10,10,12,12,13,13,14,14,15,15,16,16,17,17,18,18,19,19,20,20,21,21,23,23,24,24,25,25,26,26,27,27,28,28,29,29,30,30,31,31,32,32,33,33,34,34,35,35,36,36,37,37,38,38,39,39,40,40,41,41,42,42,43,43,44,44,45,45,46,46,47,47,49,49,50,50,51,51,52,52,53,53,54,54,55,55,56,56,57,57,58,58,59,59,60,60,61,61,62,62,63,63,64,64,65,65,66,66,69,69,70,70,71,71,72,72,73,73,74,74,76,76],"right_children":[2,4,6,8,10,-1,12,14,16,18,20,-1,22,24,26,28,30,32,34,36,38,40,-1,42,44,46,48,50,52,54,56,58,60,62,64,66,68,70,72,74,76,78,80,82,84,86,88,90,-1,92,94,96,98,100,102,104,106,108,110,112,114,116,118,120,122,124,126,-1,-1,128,130,132,134,136,138,-1,140,-1,-1,-1,-1,-1,-1,-1,-1,-1,-1,-1,-1,-1,-1,-1,-1,-1,-1,-1,-1,-1,-1,-1,-1,-1,-1,-1,-1,-1,-1,-1,-1,-1,-1,-1,-1,-1,-1,-1,-1,-1,-1,-1,-1,-1,-1,-1,-1,-1,-1,-1,-1,-1,-1,-1,-1,-1,-1,-1,-1,-1,-1,-1,-1],"split_conditions":[-3.467444E-1,-3.761198E-1,-1.17354235E-2,-4.734303E-1,-2.0846237E-1,-1.8186541E-1,-2.0846237E-1,3.0658257E-1,-3.4038156E-1,5.60465E-1,2.5312582E-1,-1.8184413E-1,-8.7533385E-2,1.1877293E-1,1.1877293E-1,4.823303E-2,2.5312582E-1,-4.734303E-1,-4.734303E-1,3.0658257E-1,3.0658257E-1,-3.761198E-1,-1.8183644E-1,-1.5678431E-1,-1.5678431E-1,-1.5678431E-1,2.3020537E0,1.1877293E-1,1.1877293E-1,3.0658257E-1,3.0658257E-1,-1.5678431E-1,1.5340223E0,-1.5678431E-1,5.6742156E-1,-2.5289146E-2,2.2216356E0,1.5849289E0,2.6932624E-1,-4.734303E-1,5.60465E-1,1.5340223E0,-3.4038156E-1,6.024078E-1,-1.976839E0,1.5340223E0,-1.976839E0,-1.5678431E-1,-8.5276715E-2,-1.0058311E0,-1.5752386E0,1.5340223E0,1.5340223E0,1.1877293E-1,1.1877293E-1,1.1877293E-1,1.5340223E0,-1.0082837E0,1.5340223E0,-1.8982483E0,-5.664453E-1,-1.9745924E0,-1.0235041E0,1.0216813E0,7.4901557E-1,-1.976839E0,-1.4919252E0,1.8037547E-1,1.673433E-1,-1.5683621E0,1.620998E0,-1.5301182E0,2.2216356E0,1.1877293E-1,5.60465E-1,1.7934875E-1,-7.9861695E-1,-1.7111675E-1,-1.3441934E-1,-8.508614E-2,-1.40807E-2,-3.5061803E-2,7.531495E-2,6.007066E-2,1.307817E-1,-1.4159581E-1,-3.144274E-2,4.2088587E-2,1.0167122E-1,1.3603841E-1,1.6601528E-1,8.439571E-2,2.7174566E-2,-7.741898E-2,1.5045436E-1,-4.840945E-2,1.8942256E-2,7.159241E-2,1.6397703E-1,1.3072594E-1,1.6678998E-1,1.6262223E-1,1.7639834E-1,4.8828352E-2,1.4482738E-1,1.0994816E-1,1.5412085E-1,1.1887007E-1,-4.9930274E-2,1.670283E-1,1.3860296E-1,1.0382422E-1,1.7979026E-1,1.712964E-1,1.4971234E-1,-8.2410894E-2,4.3856505E-2,1.2692793E-1,-1.9810828E-3,1.2213564E-1,-6.1881967E-2,1.6535172E-1,5.560365E-2,1.6593105E-1,1.7677723E-1,6.224265E-3,1.4997755E-1,1.0299046E-1,1.605175E-1,1.3114281E-1,-4.266647E-2,9.180655E-2,1.5744728E-1,1.7442587E-1,1.5020607E-1,5.5857014E-2,1.6094926E-1,1.642053E-1,9.951145E-2,3.3055138E-2,1.6628861E-1],"split_indices":[3,6,5,13,2,0,2,2,2,0,0,0,2,1,1,0,0,13,13,2,2,6,0,12,12,12,0,1,1,2,2,12,10,12,0,17,2,0,0,13,0,10,2,15,17,10,17,12,0,17,4,10,10,1,1,1,10,3,10,0,0,7,3,5,16,17,4,0,0,4,15,4,2,1,0,0,17,0,0,0,0,0,0,0,0,0,0,0,0,0,0,0,0,0,0,0,0,0,0,0,0,0,0,0,0,0,0,0,0,0,0,0,0,0,0,0,0,0,0,0,0,0,0,0,0,0,0,0,0,0,0,0,0,0,0,0,0,0,0,0,0],"split_type":[0,0,0,0,0,0,0,0,0,0,0,0,0,0,0,0,0,0,0,0,0,0,0,0,0,0,0,0,0,0,0,0,0,0,0,0,0,0,0,0,0,0,0,0,0,0,0,0,0,0,0,0,0,0,0,0,0,0,0,0,0,0,0,0,0,0,0,0,0,0,0,0,0,0,0,0,0,0,0,0,0,0,0,0,0,0,0,0,0,0,0,0,0,0,0,0,0,0,0,0,0,0,0,0,0,0,0,0,0,0,0,0,0,0,0,0,0,0,0,0,0,0,0,0,0,0,0,0,0,0,0,0,0,0,0,0,0,0,0,0,0],"sum_hessian":[7.747882E4,3.867599E4,3.8802832E4,2.1919963E4,1.6756025E4,2.1620592E4,1.718224E4,9.920208E3,1.1999754E4,3.3199E3,1.3436126E4,5.72087E3,1.1461369E4,5.159972E3,4.7602363E3,2.3289094E3,9.670845E3,2.6824153E3,6.3748474E2,1.02681875E4,3.1679387E3,6.9414497E3,4.51992E3,4.141331E3,1.01864124E3,3.2774033E3,1.4828328E3,1.7509531E3,5.779562E2,8.275817E3,1.3950275E3,1.584558E3,1.0978572E3,4.3517947E2,2.0230528E2,2.292557E3,7.9756304E3,7.2818054E2,2.4397583E3,3.7996296E3,3.1418198E3,8.8835095E2,3.25298E3,1.9670644E2,8.219348E2,3.6508466E2,2.9123186E3,1.4803363E3,2.4964707E0,1.3793195E3,3.7163373E2,4.9089713E2,8.7059044E1,2.1631868E3,6.112631E3,4.0918387E2,9.8584357E2,2.8231903E2,1.302239E3,7.1734937E2,3.805078E2,8.6590904E1,3.4858856E2,5.7347565E0,1.9657053E2,2.2825999E3,9.956963E0,7.7804067E3,1.9522348E2,6.058287E2,1.2235184E2,7.7478645E1,2.3622795E3,1.4961172E3,2.3035127E3,2.553555E3,5.882651E2,6.1146063E2,2.7689035E2,1.8505516E3,1.4024285E3,9.6166664E1,1.0053977E2,1.634219E2,6.5851294E2,2.2400163E2,1.4108301E2,6.9245374E2,2.219865E3,2.4941168E2,1.2309247E3,1.176111E3,2.0320853E2,1.9873036E0,3.6964642E2,3.2822806E2,1.6266905E2,5.0797836E1,3.6261204E1,1.6779023E3,4.852845E2,4.6107773E3,1.5018534E3,3.464308E2,6.2753086E1,5.315365E2,4.5430707E2,2.5816867E2,2.4150366E1,1.055503E3,2.4673589E2,8.216713E0,7.091326E2,2.0133844E2,1.7916937E2,3.7576435E1,4.901447E1,3.136711E2,3.4917454E1,3.2392719E0,2.4954846E0,1.9010025E2,6.470278E0,4.66292E2,1.8163079E3,3.2427714E0,6.714191E0,2.0652205E1,5.851765E2,1.1786611E2,4.485725E0,1.0675183E1,6.680346E1,2.3071423E3,5.5137108E1,1.0395908E3,4.5652628E2,2.1013948E3,2.0211778E2,1.4924572E0,5.867726E2],"tree_param":{"num_deleted":"0","num_feature":"18","num_nodes":"141","size_leaf_vector":"1"}},{"base_weights":[-1.2652843E-3,1.1201999E0,-1.1305865E0,5.3250885E-1,1.3007246E0,-1.6825132E-1,-4.3647128E-1,2.8397015E-1,1.2875658E0,1.172592E0,1.5791904E0,-1.6822879E-1,9.159344E-2,-1.8880706E-1,8.6991465E-1,1.3783122E0,6.1822647E-1,1.2523147E0,2.2273937E-2,1.5808101E0,-8.731218E-1,1.3606524E0,-6.724395E-1,2.6770094E-2,-1.0747821E0,1.0636255E0,3.839515E-1,1.4310356E0,1.1427835E0,7.383628E-1,-1.199485E0,1.4297881E0,1.0302459E0,-4.1622433E-1,2.9012415E-1,1.601639E0,1.4439609E0,6.0640465E-2,-1.6218345E-1,1.1882639E0,1.5234658E0,-5.110153E-2,-1.2315913E0,-6.750956E-2,8.114684E-1,-1.1582619E0,-2.8214088E-1,9.265497E-1,1.255669E0,1.2232509E-1,7.6630396E-1,1.2657216E0,1.4735674E0,9.291245E-1,1.3540238E0,-1.2284719E0,7.83187E-1,8.307814E-3,-1.3759329E0,1.5001935E0,1.1611682E0,7.403702E-1,1.2024783E0,-6.273126E-1,3.848253E-1,5.020981E-1,-1.8435858E-1,1.5198958E0,1.6225348E0,1.4743729E0,1.0200598E-1,9.8586595E-1,1.5579574E0,1.55923E0,1.1304338E0,-3.550293E-1,1.0195965E0,-6.9589555E-1,-1.6743038E0,-4.476614E-2,8.551898E-3,1.8223569E-1,6.5458156E-2,-1.4461498E-1,-1.0218233E-1,1.17009155E-1,-6.2621765E-2,9.463042E-2,-3.3865463E-2,1.7656519E-1,1.1467632E-1,4.8232175E-2,-6.7793734E-2,-4.7482874E-2,8.308747E-2,1.3245942E-1,8.721028E-2,1.6975202E-1,1.3905655E-1,2.5480041E-2,1.12004735E-1,1.3913722E-1,2.9752082E-3,-1.5582995E-1,-3.7636973E-2,-9.274795E-2,8.20727E-2,-1.5851039E-1,-1.157883E-3,1.3983864E-1,1.5480834E-1,9.521512E-2,1.3340966E-1,5.379796E-2,1.2259493E-1,9.571361E-2,1.2773162E-1,-3.0168278E-2,-1.0940682E-1,1.8594146E-1,-3.0293882E-2,7.1791604E-2,3.3876852E-3,4.9259093E-2,-4.3042704E-2,1.3112773E-1,1.5462498E-1,1.62354E-1,7.132505E-2,1.3324013E-1,1.5628602E-1,-9.657248E-2,8.4005535E-2,1.1195159E-1,1.1752364E-2,1.5612432E-1,4.6225753E-2,1.5676573E-1,1.1520394E-1,8.076688E-2,1.3982175E-1,-7.4414395E-2,2.9257158E-2,-1.6034536E-1,1.0926E-1,2.3639439E-2,-1.5778619E-1,1.1652734E-1,-1.6774844E-1],"categories":[],"categories_nodes":[],"categories_segments":[],"categories_sizes":[],"default_left":[0,0,0,0,0,0,0,0,0,0,0,0,0,0,0,0,0,0,0,0,0,0,0,0,0,0,0,0,0,0,0,0,0,0,0,0,0,0,0,0,0,0,0,0,0,0,0,0,0,0,0,0,0,0,0,0,0,0,0,0,0,0,0,0,0,0,0,0,0,0,0,0,0,0,0,0,0,0,0,0,0,0,0,0,0,0,0,0,0,0,0,0,0,0,0,0,0,0,0,0,0,0,0,0,0,0,0,0,0,0,0,0,0,0,0,0,0,0,0,0,0,0,0,0,0,0,0,0,0,0,0,0,0,0,0,0,0,0,0,0,0,0,0,0,0,0,0,0,0],"id":2,"left_children":[1,3,5,7,9,-1,11,13,15,17,19,-1,21,23,25,27,29,31,33,35,37,39,41,43,45,47,49,51,53,55,57,59,61,63,65,67,69,-1,-1,71,73,75,77,79,81,83,85,87,89,91,93,95,97,99,101,103,105,-1,107,109,111,113,115,117,119,121,123,125,127,129,131,133,135,137,139,141,143,145,147,-1,-1,-1,-1,-1,-1,-1,-1,-1,-1,-1,-1,-1,-1,-1,-1,-1,-1,-1,-1,-1,-1,-1,-1,-1,-1,-1,-1,-1,-1,-1,-1,-1,-1,-1,-1,-1,-1,-1,-1,-1,-1,-1,-1,-1,-1,-1,-1,-1,-1,-1,-1,-1,-1,-1,-1,-1,-1,-1,-1,-1,-1,-1,-1,-1,-1,-1,-1,-1,-1],"loss_changes":[9.615041E4,4.0405664E3,1.449073E4,1.6797546E3,1.0378711E3,0E0,1.1023775E4,1.8664727E3,1.3380273E2,1.8305E3,3.784375E1,0E0,1.1412383E4,7.1233203E2,2.8281445E2,2.2596924E1,5.9079613E1,7.3421875E2,1.5218974E2,2.3835938E1,8.408939E0,1.2233545E2,2.5524595E3,2.2203748E2,4.7969116E1,5.5449707E1,8.583953E1,9.318115E0,1.5075439E1,2.305429E1,3.93931E0,1.9442773E2,4.132627E2,8.332982E1,8.0992966E1,1.1119141E1,4.972412E1,0E0,0E0,1.5955981E2,3.0163086E1,1.1331456E3,9.159263E2,1.5592255E2,4.986136E1,2.444696E1,3.6143833E1,3.1779907E1,4.756665E1,1.4760945E2,2.8348465E1,6.5513306E0,2.1041748E1,2.328801E1,8.850891E0,1.0921822E0,1.6534134E1,0E0,4.2380753E0,3.788867E1,7.674951E1,3.0344324E2,9.429053E1,5.8836273E1,1.051245E2,5.6184387E1,4.1708042E1,6.9609375E0,4.6191406E0,1.2928955E1,2.2998993E1,1.6164734E2,2.0145264E0,5.328125E0,1.5557968E1,6.8365063E2,1.491839E2,1.4405034E3,2.1069824E1,0E0,0E0,0E0,0E0,0E0,0E0,0E0,0E0,0E0,0E0,0E0,0E0,0E0,0E0,0E0,0E0,0E0,0E0,0E0,0E0,0E0,0E0,0E0,0E0,0E0,0E0,0E0,0E0,0E0,0E0,0E0,0E0,0E0,0E0,0E0,0E0,0E0,0E0,0E0,0E0,0E0,0E0,0E0,0E0,0E0,0E0,0E0,0E0,0E0,0E0,0E0,0E0,0E0,0E0,0E0,0E0,0E0,0E0,0E0,0E0,0E0,0E0,0E0,0E0,0E0,0E0,0E0,0E0,0E0,0E0],"parents":[2147483647,0,0,1,1,2,2,3,3,4,4,6,6,7,7,8,8,9,9,10,10,12,12,13,13,14,14,15,15,16,16,17,17,18,18,19,19,20,20,21,21,22,22,23,23,24,24,25,25,26,26,27,27,28,28,29,29,30,30,31,31,32,32,33,33,34,34,35,35,36,36,39,39,40,40,41,41,42,42,43,43,44,44,45,45,46,46,47,47,48,48,49,49,50,50,51,51,52,52,53,53,54,54,55,55,56,56,58,58,59,59,60,60,61,61,62,62,63,63,64,64,65,65,66,66,67,67,68,68,69,69,70,70,71,71,72,72,73,73,74,74,75,75,76,76,77,77,78,78],"right_children":[2,4,6,8,10,-1,12,14,16,18,20,-1,22,24,26,28,30,32,34,36,38,40,42,44,46,48,50,52,54,56,58,60,62,64,66,68,70,-1,-1,72,74,76,78,80,82,84,86,88,90,92,94,96,98,100,102,104,106,-1,108,110,112,114,116,118,120,122,124,126,128,130,132,134,136,138,140,142,144,146,148,-1,-1,-1,-1,-1,-1,-1,-1,-1,-1,-1,-1,-1,-1,-1,-1,-1,-1,-1,-1,-1,-1,-1,-1,-1,-1,-1,-1,-1,-1,-1,-1,-1,-1,-1,-1,-1,-1,-1,-1,-1,-1,-1,-1,-1,-1,-1,-1,-1,-1,-1,-1,-1,-1,-1,-1,-1,-1,-1,-1,-1,-1,-1,-1,-1,-1,-1,-1,-1,-1],"split_conditions":[-3.467444E-1,6.024078E-1,-1.17354235E-2,1.1877293E-1,1.1877293E-1,-1.6825132E-1,-4.6562687E-1,-4.734303E-1,-3.3272088E-2,1.981034E0,2.3020537E0,-1.6822879E-1,-4.2374262E-1,-3.3272088E-2,-5.421336E-2,3.555722E-1,1.4762615E0,9.8645186E-1,1.4082094E0,-3.3272088E-2,7.128959E-1,-4.734303E-1,-3.975369E-1,7.5472647E-1,5.9519553E-1,-1.6614506E0,1.5340223E0,-1.976839E0,1.5340223E0,-1.3855302E0,7.17498E-1,4.823303E-2,1.5391418E0,-1.6614506E0,2.5312582E-1,1.2054634E0,1.5849289E0,6.0640465E-2,-1.6218345E-1,1.1877293E-1,7.6535773E-1,1.1877293E-1,5.704047E-2,-1.976839E0,9.165525E-1,-5.747176E-1,-1.0064969E0,-3.5213646E-1,-1.0064969E0,1.0726969E0,-5.335818E-1,2.4921727E0,-1.6595258E0,-1.976839E0,2.0971608E0,-1.444502E0,-1.5683621E0,8.307814E-3,-9.0939975E-1,1.4609139E0,1.433364E0,-1.6614506E0,-1.976839E0,-5.421336E-2,-1.0134478E0,-1.1208173E0,9.898278E-1,-1.5312922E0,2.0971608E0,1.6777318E0,1.806608E0,-3.3272088E-2,1.4960896E0,8.5938233E-1,1.5340223E0,-4.734303E-1,-5.4050213E-1,-1.9930951E-1,2.9050797E-1,-4.476614E-2,8.551898E-3,1.8223569E-1,6.5458156E-2,-1.4461498E-1,-1.0218233E-1,1.17009155E-1,-6.2621765E-2,9.463042E-2,-3.3865463E-2,1.7656519E-1,1.1467632E-1,4.8232175E-2,-6.7793734E-2,-4.7482874E-2,8.308747E-2,1.3245942E-1,8.721028E-2,1.6975202E-1,1.3905655E-1,2.5480041E-2,1.12004735E-1,1.3913722E-1,2.9752082E-3,-1.5582995E-1,-3.7636973E-2,-9.274795E-2,8.20727E-2,-1.5851039E-1,-1.157883E-3,1.3983864E-1,1.5480834E-1,9.521512E-2,1.3340966E-1,5.379796E-2,1.2259493E-1,9.571361E-2,1.2773162E-1,-3.0168278E-2,-1.0940682E-1,1.8594146E-1,-3.0293882E-2,7.1791604E-2,3.3876852E-3,4.9259093E-2,-4.3042704E-2,1.3112773E-1,1.5462498E-1,1.62354E-1,7.132505E-2,1.3324013E-1,1.5628602E-1,-9.657248E-2,8.4005535E-2,1.1195159E-1,1.1752364E-2,1.5612432E-1,4.6225753E-2,1.5676573E-1,1.1520394E-1,8.076688E-2,1.3982175E-1,-7.4414395E-2,2.9257158E-2,-1.6034536E-1,1.0926E-1,2.3639439E-2,-1.5778619E-1,1.1652734E-1,-1.6774844E-1],"split_indices":[3,15,5,1,1,0,16,13,11,11,0,0,16,11,0,0,0,12,15,11,9,13,15,16,16,3,10,17,10,0,5,0,15,3,0,15,0,0,0,1,0,1,4,17,16,16,3,17,3,0,15,5,17,17,0,0,4,0,14,15,16,3,17,0,3,7,5,4,0,15,16,11,4,14,10,13,15,15,3,0,0,0,0,0,0,0,0,0,0,0,0,0,0,0,0,0,0,0,0,0,0,0,0,0,0,0,0,0,0,0,0,0,0,0,0,0,0,0,0,0,0,0,0,0,0,0,0,0,0,0,0,0,0,0,0,0,0,0,0,0,0,0,0,0,0,0,0,0,0],"split_type":[0,0,0,0,0,0,0,0,0,0,0,0,0,0,0,0,0,0,0,0,0,0,0,0,0,0,0,0,0,0,0,0,0,0,0,0,0,0,0,0,0,0,0,0,0,0,0,0,0,0,0,0,0,0,0,0,0,0,0,0,0,0,0,0,0,0,0,0,0,0,0,0,0,0,0,0,0,0,0,0,0,0,0,0,0,0,0,0,0,0,0,0,0,0,0,0,0,0,0,0,0,0,0,0,0,0,0,0,0,0,0,0,0,0,0,0,0,0,0,0,0,0,0,0,0,0,0,0,0,0,0,0,0,0,0,0,0,0,0,0,0,0,0,0,0,0,0,0,0],"sum_hessian":[7.591653E4,3.8090758E4,3.7825773E4,8.951961E3,2.9138797E4,2.1070285E4,1.6755488E4,6.736059E3,2.215902E3,1.9959766E4,9.179031E3,4.987272E3,1.1768217E4,3.728415E3,3.007644E3,1.9504136E3,2.6548868E2,1.8666031E4,1.2937346E3,9.173328E3,5.7032413E0,4.422185E3,7.3460317E3,2.9995327E3,7.2888226E2,2.149599E3,8.5804486E2,1.5895208E3,3.608928E2,2.4958676E2,1.5901908E1,1.0371706E4,8.294325E3,4.9037936E2,8.033552E2,7.9522627E3,1.2210658E3,1.9802171E0,3.723024E0,2.1519622E3,2.270223E3,3.4800447E3,3.865987E3,2.6786172E3,3.209156E2,6.5901465E2,6.9867645E1,1.2577058E3,8.9189343E2,5.1023453E2,3.4781036E2,3.315596E2,1.2579612E3,1.8210307E2,1.787897E2,4.9729495E0,2.4461382E2,1.98712E0,1.3914788E1,8.214182E3,2.1575244E3,3.0933542E3,5.2009707E3,3.8827905E2,1.0210031E2,5.5524347E2,2.4811176E2,1.63397E3,6.3182925E3,1.1939102E3,2.715566E1,1.3929974E3,7.5896466E2,2.0781528E3,1.9207E2,2.7111323E3,7.6891223E2,1.7504542E3,2.1155327E3,7.682396E2,1.9103776E3,4.1687794E1,2.7922778E2,2.0881403E2,4.5020062E2,1.2923064E1,5.694458E1,1.2386184E3,1.908733E1,1.542695E2,7.376239E2,3.5219672E2,1.580378E2,1.6885992E1,3.3092438E2,2.8636368E2,4.519592E1,3.3489865E2,9.230625E2,4.069748E1,1.414056E2,1.7383633E2,4.95337E0,2.98771E0,1.9852393E0,4.743634E0,2.3987018E2,1.1924786E1,1.9900029E0,2.6374805E3,5.5767017E3,9.7977954E2,1.177745E3,2.1848228E3,9.085317E2,1.2188821E3,3.9820884E3,2.2968605E2,1.5859302E2,3.1932468E1,7.016785E1,3.796962E2,1.7554727E2,6.587733E1,1.8223444E2,1.8895526E2,1.4450148E3,6.31053E3,7.762551E0,4.6458026E2,7.2932983E2,1.0972843E1,1.6182817E1,1.2069429E3,1.8605457E2,7.5627185E2,2.6927888E0,2.0332233E3,4.492964E1,8.891502E1,1.0315499E2,1.693459E3,1.0176734E3,2.025288E1,7.4865936E2,8.51306E2,8.9914825E2,1.9581021E0,2.1135747E3],"tree_param":{"num_deleted":"0","num_feature":"18","num_nodes":"149","size_leaf_vector":"1"}},{"base_weights":[2.1867824E-3,1.0357956E0,-1.0501226E0,6.8758863E-1,1.4965557E0,-1.5768099E-1,-3.984619E-1,1.5225635E-1,1.14029E0,1.3348943E0,1.5371602E0,-1.5853904E0,1.8377966E-1,-4.1112375E-1,7.695736E-1,5.312719E-1,1.2920917E0,1.4085125E0,7.550182E-1,1.5516888E0,1.420362E0,-1.5765998E-1,-1.6561413E-1,1.3248712E0,-1.6080431E0,-7.021114E-1,7.8552836E-1,5.080897E-1,1.3669274E0,7.256954E-1,-4.762615E-2,1.3544993E0,8.6960435E-1,1.4420865E0,8.1114566E-1,9.086101E-1,-5.7659376E-1,1.5574228E0,1.4071677E0,1.5009379E0,1.1255097E0,1.1244664E0,1.5706558E0,-1.6384824E-1,-1.5803999E-1,-5.1987934E-1,-1.3879533E0,9.3957347E-1,1.5663852E-1,6.938798E-1,-9.0371865E-1,1.4167799E0,1.118126E0,5.826663E-1,1.2643034E0,-2.1356434E-1,9.550007E-1,1.1588081E0,1.4241332E0,5.692875E-1,1.2392793E0,1.482788E0,1.2802538E0,8.9067E-1,-6.2687266E-1,1.0942918E0,1.9527999E-1,1.2192544E0,-7.599772E-1,1.5684681E0,1.5315396E0,1.4234992E0,3.3143795E-1,1.5044097E0,5.416367E-1,6.081537E-1,1.2792487E0,1.2084788E0,-2.2145557E-1,1.527844E0,1.6311933E0,-7.580074E-2,-2.0623235E-2,-1.5254177E-1,-1.1661764E-1,4.469293E-2,1.0615337E-1,-2.2456208E-2,7.009565E-2,2.9400486E-2,8.202678E-2,-1.2801743E-1,-3.1066319E-2,1.469311E-1,1.2931626E-1,1.2428283E-1,-7.615356E-4,6.263347E-2,-2.8629104E-2,-9.23488E-2,1.2805082E-1,-6.591534E-2,-4.7791433E-3,6.493453E-2,1.351317E-1,1.07707284E-1,1.4409125E-1,1.3896266E-1,1.5287988E-1,1.2055091E-2,7.969897E-2,9.3937404E-2,1.3394338E-1,1.5286395E-1,1.3457392E-1,1.3551772E-1,6.698112E-2,1.404668E-1,6.717845E-2,-1.6751203E-1,1.06261946E-1,1.2143492E-1,3.0930195E-2,-7.5410314E-2,7.580688E-2,1.4889933E-1,3.461837E-2,-1.17175534E-1,-9.519098E-3,1.5762983E-1,1.491824E-1,1.4532916E-1,1.5500128E-1,1.1411792E-1,1.4647274E-1,-1.0790422E-1,8.937014E-2,9.795844E-2,1.5111542E-1,-3.580348E-2,1.0274847E-1,4.100879E-3,1.0734736E-1,1.3419507E-1,7.574896E-2,1.3789341E-1,9.0372555E-2,-1.0213827E-1,1.15115635E-1,1.5453014E-1,1.3217469E-1,1.6326791E-1,6.1934944E-2],"categories":[],"categories_nodes":[],"categories_segments":[],"categories_sizes":[],"default_left":[0,0,0,0,0,0,0,0,0,0,0,0,0,0,0,0,0,0,0,0,0,0,0,0,0,0,0,0,0,0,0,0,0,0,0,0,0,0,0,0,0,0,0,0,0,0,0,0,0,0,0,0,0,0,0,0,0,0,0,0,0,0,0,0,0,0,0,0,0,0,0,0,0,0,0,0,0,0,0,0,0,0,0,0,0,0,0,0,0,0,0,0,0,0,0,0,0,0,0,0,0,0,0,0,0,0,0,0,0,0,0,0,0,0,0,0,0,0,0,0,0,0,0,0,0,0,0,0,0,0,0,0,0,0,0,0,0,0,0,0,0,0,0,0,0,0,0,0,0,0,0,0,0],"id":3,"left_children":[1,3,5,7,9,-1,11,13,15,17,19,21,23,25,27,29,31,33,35,37,39,-1,-1,41,43,45,47,49,51,53,55,57,59,61,63,65,67,69,71,73,75,77,79,-1,-1,81,83,85,87,89,91,93,95,97,99,101,103,105,107,109,111,113,115,117,119,121,123,125,127,129,131,133,135,137,139,141,143,145,147,149,151,-1,-1,-1,-1,-1,-1,-1,-1,-1,-1,-1,-1,-1,-1,-1,-1,-1,-1,-1,-1,-1,-1,-1,-1,-1,-1,-1,-1,-1,-1,-1,-1,-1,-1,-1,-1,-1,-1,-1,-1,-1,-1,-1,-1,-1,-1,-1,-1,-1,-1,-1,-1,-1,-1,-1,-1,-1,-1,-1,-1,-1,-1,-1,-1,-1,-1,-1,-1,-1,-1,-1,-1],"loss_changes":[8.026173E4,5.971625E3,1.2549324E4,5.138749E3,1.0312109E2,0E0,1.1295919E4,3.3797087E3,1.0614746E3,1.3657373E2,1.9515625E1,7.3339844E-1,2.2424865E4,1.7698319E3,7.2357544E2,2.582309E2,2.4128809E2,5.6186035E1,7.5250275E1,7.2304688E0,3.2233154E1,0E0,0E0,3.2827344E2,1E0,5.1017065E2,9.618237E1,8.469912E2,1.5919189E1,1.3156158E2,9.631641E1,1.0750879E2,1.3100226E2,1.5927246E1,1.8222252E1,4.3226624E1,1.35715E1,7.246094E-1,7.335083E0,2.909912E0,2.3914185E1,4.1801758E2,5.3012695E0,0E0,0E0,2.411753E2,2.4364014E1,4.7502136E1,4.100076E1,1.4389844E2,8.347589E1,5.709717E0,3.374341E1,5.1742004E1,1.3927734E1,3.664129E1,9.08181E0,4.7048096E1,1.9198242E1,6.697673E1,1.4688782E1,1.1491699E1,2.4301453E1,1.5570198E1,1.7154568E1,2.412909E1,3.7414993E1,4.1276455E-1,9.593912E0,2.2226562E0,2.534668E0,3.4198608E0,7.268384E0,2.4621582E0,2.8136635E0,1.9227594E1,6.783478E0,1.7940283E2,2.4043372E2,4.351074E0,8.3935547E-1,0E0,0E0,0E0,0E0,0E0,0E0,0E0,0E0,0E0,0E0,0E0,0E0,0E0,0E0,0E0,0E0,0E0,0E0,0E0,0E0,0E0,0E0,0E0,0E0,0E0,0E0,0E0,0E0,0E0,0E0,0E0,0E0,0E0,0E0,0E0,0E0,0E0,0E0,0E0,0E0,0E0,0E0,0E0,0E0,0E0,0E0,0E0,0E0,0E0,0E0,0E0,0E0,0E0,0E0,0E0,0E0,0E0,0E0,0E0,0E0,0E0,0E0,0E0,0E0,0E0,0E0,0E0,0E0,0E0,0E0,0E0,0E0],"parents":[2147483647,0,0,1,1,2,2,3,3,4,4,6,6,7,7,8,8,9,9,10,10,11,11,12,12,13,13,14,14,15,15,16,16,17,17,18,18,19,19,20,20,23,23,24,24,25,25,26,26,27,27,28,28,29,29,30,30,31,31,32,32,33,33,34,34,35,35,36,36,37,37,38,38,39,39,40,40,41,41,42,42,45,45,46,46,47,47,48,48,49,49,50,50,51,51,52,52,53,53,54,54,55,55,56,56,57,57,58,58,59,59,60,60,61,61,62,62,63,63,64,64,65,65,66,66,67,67,68,68,69,69,70,70,71,71,72,72,73,73,74,74,75,75,76,76,77,77,78,78,79,79,80,80],"right_children":[2,4,6,8,10,-1,12,14,16,18,20,22,24,26,28,30,32,34,36,38,40,-1,-1,42,44,46,48,50,52,54,56,58,60,62,64,66,68,70,72,74,76,78,80,-1,-1,82,84,86,88,90,92,94,96,98,100,102,104,106,108,110,112,114,116,118,120,122,124,126,128,130,132,134,136,138,140,142,144,146,148,150,152,-1,-1,-1,-1,-1,-1,-1,-1,-1,-1,-1,-1,-1,-1,-1,-1,-1,-1,-1,-1,-1,-1,-1,-1,-1,-1,-1,-1,-1,-1,-1,-1,-1,-1,-1,-1,-1,-1,-1,-1,-1,-1,-1,-1,-1,-1,-1,-1,-1,-1,-1,-1,-1,-1,-1,-1,-1,-1,-1,-1,-1,-1,-1,-1,-1,-1,-1,-1,-1,-1,-1,-1],"split_conditions":[-3.467444E-1,-3.761198E-1,-1.17354235E-2,-4.734303E-1,-2.0846237E-1,-1.5768099E-1,-2.0846237E-1,3.0658257E-1,-3.4038156E-1,-3.3272088E-2,1.0899613E0,-4.6562687E-1,-8.7533385E-2,1.1877293E-1,1.1877293E-1,4.823303E-2,3.555722E-1,1.4824824E0,-1.0082837E0,1.5849289E0,2.5312582E-1,-1.5765998E-1,-1.6561413E-1,-3.761198E-1,5.482225E-1,-3.3272088E-2,-3.3272088E-2,9.1059136E-1,-3.3272088E-2,1.1877293E-1,1.1877293E-1,3.0658257E-1,1.5340223E0,2.5312582E-1,4.980837E0,6.4678174E-1,-1.1886898E0,1.5340223E0,4.980837E0,-2.5289146E-2,3.0658257E-1,-3.3272088E-2,-4.5739043E-1,-1.6384824E-1,-1.5803999E-1,-3.4038156E-1,-1.8374648E0,-1.976839E0,5.9519553E-1,-1.976839E0,1.5340223E0,4.823303E-2,5.60465E-1,5.814787E-1,-1.5752386E0,-1.976839E0,1.5340223E0,1.1877293E-1,1.1877293E-1,3.0658257E-1,3.0658257E-1,1.5340223E0,-1.0058311E0,-1.5678431E-1,-4.5990795E-1,2.4921727E0,-1.9745924E0,-8.866886E-2,1.1877293E-1,7.6535773E-1,-1.976839E0,1.6149054E0,3.0658257E-1,-1.5797296E0,-1.9745924E0,1.1877293E-1,2.4921727E0,-1.5678431E-1,1.1877293E-1,1.2775897E0,2.0971608E0,-7.580074E-2,-2.0623235E-2,-1.5254177E-1,-1.1661764E-1,4.469293E-2,1.0615337E-1,-2.2456208E-2,7.009565E-2,2.9400486E-2,8.202678E-2,-1.2801743E-1,-3.1066319E-2,1.469311E-1,1.2931626E-1,1.2428283E-1,-7.615356E-4,6.263347E-2,-2.8629104E-2,-9.23488E-2,1.2805082E-1,-6.591534E-2,-4.7791433E-3,6.493453E-2,1.351317E-1,1.07707284E-1,1.4409125E-1,1.3896266E-1,1.5287988E-1,1.2055091E-2,7.969897E-2,9.3937404E-2,1.3394338E-1,1.5286395E-1,1.3457392E-1,1.3551772E-1,6.698112E-2,1.404668E-1,6.717845E-2,-1.6751203E-1,1.06261946E-1,1.2143492E-1,3.0930195E-2,-7.5410314E-2,7.580688E-2,1.4889933E-1,3.461837E-2,-1.17175534E-1,-9.519098E-3,1.5762983E-1,1.491824E-1,1.4532916E-1,1.5500128E-1,1.1411792E-1,1.4647274E-1,-1.0790422E-1,8.937014E-2,9.795844E-2,1.5111542E-1,-3.580348E-2,1.0274847E-1,4.100879E-3,1.0734736E-1,1.3419507E-1,7.574896E-2,1.3789341E-1,9.0372555E-2,-1.0213827E-1,1.15115635E-1,1.5453014E-1,1.3217469E-1,1.6326791E-1,6.1934944E-2],"split_indices":[3,6,5,13,2,0,2,2,2,11,11,16,2,1,1,0,0,0,3,0,0,0,0,6,2,11,11,11,11,1,1,2,10,0,8,0,0,10,8,17,2,11,16,0,0,2,14,17,16,17,10,0,0,16,4,17,10,1,1,2,2,10,17,12,2,5,7,16,1,0,17,0,2,4,7,1,5,12,1,0,0,0,0,0,0,0,0,0,0,0,0,0,0,0,0,0,0,0,0,0,0,0,0,0,0,0,0,0,0,0,0,0,0,0,0,0,0,0,0,0,0,0,0,0,0,0,0,0,0,0,0,0,0,0,0,0,0,0,0,0,0,0,0,0,0,0,0,0,0,0,0,0,0],"split_type":[0,0,0,0,0,0,0,0,0,0,0,0,0,0,0,0,0,0,0,0,0,0,0,0,0,0,0,0,0,0,0,0,0,0,0,0,0,0,0,0,0,0,0,0,0,0,0,0,0,0,0,0,0,0,0,0,0,0,0,0,0,0,0,0,0,0,0,0,0,0,0,0,0,0,0,0,0,0,0,0,0,0,0,0,0,0,0,0,0,0,0,0,0,0,0,0,0,0,0,0,0,0,0,0,0,0,0,0,0,0,0,0,0,0,0,0,0,0,0,0,0,0,0,0,0,0,0,0,0,0,0,0,0,0,0,0,0,0,0,0,0,0,0,0,0,0,0,0,0,0,0,0,0],"sum_hessian":[7.378992E4,3.722574E4,3.6564184E4,2.1203936E4,1.6021805E4,2.0220273E4,1.634391E4,9.71592E3,1.1488016E4,3.2231477E3,1.2798657E4,5.3782847E3,1.0965626E4,5.080058E3,4.6358613E3,2.293031E3,9.194984E3,2.858782E3,3.6436554E2,1.1371823E4,1.426834E3,4.8045967E3,5.73688E2,6.699454E3,4.2661714E3,4.086713E3,9.9334515E2,3.2257024E3,1.4101593E3,1.7163422E3,5.7668884E2,8.009637E3,1.1853468E3,2.7053198E3,1.5346217E2,3.2696957E2,3.7395954E1,1.0928452E4,4.4337186E2,1.1173887E3,3.0944537E2,3.6934846E3,3.0059695E3,2.0026683E3,2.2635032E3,3.230191E3,8.56522E2,7.9750433E2,1.9584079E2,2.851024E3,3.7467838E2,1.1708589E3,2.3930031E2,1.3578442E3,3.5849796E2,4.9547333E2,8.121554E1,2.10674E3,5.9028975E3,6.5542883E2,5.2991797E2,2.155134E3,5.5018585E2,1.4578091E2,7.681254E0,2.590136E2,6.795598E1,2.941509E0,3.4454445E1,7.6179736E3,3.3104778E3,4.3642288E2,6.9489965E0,1.1127932E3,4.595444E0,7.2025154E1,2.3742021E2,3.476579E3,2.1690553E2,1.7761332E3,1.2298363E3,1.8353411E3,1.39485E3,5.251433E2,3.3137863E2,1.5918005E2,6.383243E2,1.155238E2,8.031699E1,6.8550433E2,2.1655195E3,2.2848416E2,1.4619421E2,8.140452E2,3.568137E2,2.153421E2,2.3958202E1,1.2931383E3,6.4705925E1,2.224181E0,3.5627377E2,1.3354228E2,3.6193103E2,4.7341938E1,3.38736E1,1.6372039E3,4.6953607E2,4.4500527E3,1.4528447E3,2.2114471E2,4.342841E2,1.3526285E2,3.9465515E2,1.6072517E3,5.478823E2,4.889536E2,6.123227E1,4.1921467E1,1.0385944E2,4.745444E0,2.93581E0,2.2418024E2,3.4833363E1,2.516483E1,4.2791153E1,1.7082658E0,1.2332432E0,2.0804955E1,1.3649491E1,6.8940933E3,7.238803E2,6.4749915E2,2.6629788E3,5.926575E1,3.771571E2,1.7186157E0,5.230381E0,1.597462E1,1.0968186E3,1.7036935E0,2.8917506E0,3.2951305E1,3.907385E1,2.1054605E2,2.6874147E1,2.2272844E3,1.2492946E3,1.3720276E2,7.9702774E1,1.6314448E3,1.4468839E2,1.2274203E3,2.4159758E0],"tree_param":{"num_deleted":"0","num_feature":"18","num_nodes":"153","size_leaf_vector":"1"}},{"base_weights":[-3.026212E-4,9.5969087E-1,-9.9265516E-1,5.029847E-1,1.1433674E0,-1.4926553E-1,-3.7804627E-1,2.9614046E-1,1.1365767E0,1.0289177E0,1.396181E0,-1.492451E-1,8.077264E-2,-8.614384E-2,7.6805055E-1,1.2082165E0,6.461114E-1,1.0964075E0,5.6327272E-2,1.4186852E0,1.2501631E0,1.17799E0,-5.7725763E-1,9.355381E-2,-8.583249E-1,9.1649115E-1,3.2931933E-1,1.3218151E0,1.1004198E0,8.203259E-1,-3.4635288E-1,1.2535058E0,9.0298206E-1,2.687489E-1,-3.660457E-1,1.4196129E0,-2.6304337E-1,1.2825336E0,-2.3087183E-2,1.0674274E0,1.4241581E0,-5.791568E-2,-1.0939881E0,-3.2493368E-2,6.3474655E-1,-9.6705264E-1,-1.7519224E-1,8.211613E-1,1.2442802E0,9.437892E-2,6.8114495E-1,1.3262671E0,3.7947044E-1,9.761161E-1,1.2743827E0,1.6800313E-1,9.4923764E-1,4.4706112E-1,-8.7922436E-1,1.3185018E0,1.011186E0,6.2019783E-1,9.9597126E-1,4.593659E-1,-1.3037078E-1,-6.969371E-1,1.503011E-1,1.4407454E0,1.3561091E0,5.7441887E-2,-1.2279582E-1,1.3070126E0,7.347179E-1,-1.2848709E0,5.943029E-1,1.1328828E0,8.6327836E-2,1.430328E0,9.00629E-1,-3.201971E-1,8.780518E-1,-5.799571E-1,-1.4879862E0,1.8116452E-2,-2.509383E-2,8.641673E-2,4.927412E-3,-1.2503889E-1,-8.520751E-2,1.3448926E-2,-1.1875709E-1,8.50161E-2,-2.9563213E-2,9.584102E-2,1.3101609E-1,4.2643216E-2,-5.1559757E-2,-6.0856678E-2,7.472865E-2,6.238329E-2,1.3321245E-1,-5.721855E-2,6.912003E-2,1.0237501E-1,3.472845E-2,1.5597683E-1,1.1244436E-1,4.1360088E-2,-1.1006031E-1,-2.8939215E-2,1.0105796E-1,-8.2104266E-2,1.1077255E-1,4.3441445E-2,-1.0398543E-1,1.2229979E-1,1.3558511E-1,6.734418E-2,1.10451065E-1,3.762317E-2,8.444702E-2,1.6119127E-1,8.0647044E-2,1.5227688E-2,1.7412537E-1,-8.758668E-2,4.0892446E-5,-8.865178E-2,-2.7810335E-2,3.0476619E-2,-1.1154299E-1,1.4432235E-1,1.1535907E-1,1.244932E-1,1.3880368E-1,1.1555525E-1,1.3905324E-1,1.0268438E-1,-1.9893656E-2,-1.514102E-1,-1.728171E-2,8.525693E-2,-4.215801E-2,1.234197E-1,8.16358E-2,3.3805832E-2,-7.510351E-2,1.4419177E-1,1.221267E-1,-7.456849E-2,1.0869434E-1,-6.444721E-2,2.1952756E-2,-1.3092393E-1,9.404567E-2,2.7051672E-2,-1.3907824E-1,1.1852559E-1,-1.49182E-1],"categories":[],"categories_nodes":[],"categories_segments":[],"categories_sizes":[],"default_left":[0,0,0,0,0,0,0,0,0,0,0,0,0,0,0,0,0,0,0,0,0,0,0,0,0,0,0,0,0,0,0,0,0,0,0,0,0,0,0,0,0,0,0,0,0,0,0,0,0,0,0,0,0,0,0,0,0,0,0,0,0,0,0,0,0,0,0,0,0,0,0,0,0,0,0,0,0,0,0,0,0,0,0,0,0,0,0,0,0,0,0,0,0,0,0,0,0,0,0,0,0,0,0,0,0,0,0,0,0,0,0,0,0,0,0,0,0,0,0,0,0,0,0,0,0,0,0,0,0,0,0,0,0,0,0,0,0,0,0,0,0,0,0,0,0,0,0,0,0,0,0,0,0,0,0,0,0,0,0],"id":4,"left_children":[1,3,5,7,9,-1,11,13,15,17,19,-1,21,23,25,27,29,31,33,35,37,39,41,43,45,47,49,51,53,55,57,59,61,63,65,67,69,71,73,75,77,79,81,83,85,87,89,91,93,95,97,99,101,103,105,107,109,111,113,115,117,119,121,123,125,127,129,131,133,-1,-1,135,137,139,141,143,145,147,149,151,153,155,157,-1,-1,-1,-1,-1,-1,-1,-1,-1,-1,-1,-1,-1,-1,-1,-1,-1,-1,-1,-1,-1,-1,-1,-1,-1,-1,-1,-1,-1,-1,-1,-1,-1,-1,-1,-1,-1,-1,-1,-1,-1,-1,-1,-1,-1,-1,-1,-1,-1,-1,-1,-1,-1,-1,-1,-1,-1,-1,-1,-1,-1,-1,-1,-1,-1,-1,-1,-1,-1,-1,-1,-1,-1,-1,-1,-1],"loss_changes":[6.775407E4,3.0319258E3,1.0746293E4,1.3587661E3,7.445117E2,0E0,8.0221006E3,1.4107341E3,8.888794E1,1.1650801E3,2.4617188E1,0E0,8.0253164E3,5.9964154E2,2.2761304E2,2.5798828E1,5.68918E1,5.032461E2,1.0353486E2,1.1217773E1,4.457959E1,1.1189404E2,1.8646003E3,2.3919043E2,6.0424744E1,8.067114E1,7.3194496E1,4.022217E0,2.3579102E1,2.3285904E1,2.135991E1,1.4288574E2,1.9509668E2,5.8462578E1,6.609012E1,7.3691406E0,4.483914E0,1.3175293E1,2.2405506E1,1.8482178E2,2.8740234E0,8.512579E2,7.045161E2,1.3281467E2,8.89274E1,2.1854858E1,3.5661022E1,6.593994E1,9.800964E0,1.0809104E2,3.0712555E1,3.5843506E0,2.3157275E0,1.9827087E1,1.8577087E1,1.5167683E1,1.7964264E1,1.8157782E1,6.782881E0,2.408496E1,6.0434082E1,1.0060089E2,6.522617E2,2.0433795E2,2.426749E1,1.845681E1,2.999061E1,2.0341797E0,4.489746E0,0E0,0E0,1.1141113E1,1.3124626E1,2.1456718E0,5.4330044E0,8.55564E1,3.844469E1,1.3203125E0,6.2424E0,4.7417197E2,1.0483789E2,1.043637E3,2.1968262E1,0E0,0E0,0E0,0E0,0E0,0E0,0E0,0E0,0E0,0E0,0E0,0E0,0E0,0E0,0E0,0E0,0E0,0E0,0E0,0E0,0E0,0E0,0E0,0E0,0E0,0E0,0E0,0E0,0E0,0E0,0E0,0E0,0E0,0E0,0E0,0E0,0E0,0E0,0E0,0E0,0E0,0E0,0E0,0E0,0E0,0E0,0E0,0E0,0E0,0E0,0E0,0E0,0E0,0E0,0E0,0E0,0E0,0E0,0E0,0E0,0E0,0E0,0E0,0E0,0E0,0E0,0E0,0E0,0E0,0E0,0E0,0E0,0E0,0E0,0E0,0E0],"parents":[2147483647,0,0,1,1,2,2,3,3,4,4,6,6,7,7,8,8,9,9,10,10,12,12,13,13,14,14,15,15,16,16,17,17,18,18,19,19,20,20,21,21,22,22,23,23,24,24,25,25,26,26,27,27,28,28,29,29,30,30,31,31,32,32,33,33,34,34,35,35,36,36,37,37,38,38,39,39,40,40,41,41,42,42,43,43,44,44,45,45,46,46,47,47,48,48,49,49,50,50,51,51,52,52,53,53,54,54,55,55,56,56,57,57,58,58,59,59,60,60,61,61,62,62,63,63,64,64,65,65,66,66,67,67,68,68,71,71,72,72,73,73,74,74,75,75,76,76,77,77,78,78,79,79,80,80,81,81,82,82],"right_children":[2,4,6,8,10,-1,12,14,16,18,20,-1,22,24,26,28,30,32,34,36,38,40,42,44,46,48,50,52,54,56,58,60,62,64,66,68,70,72,74,76,78,80,82,84,86,88,90,92,94,96,98,100,102,104,106,108,110,112,114,116,118,120,122,124,126,128,130,132,134,-1,-1,136,138,140,142,144,146,148,150,152,154,156,158,-1,-1,-1,-1,-1,-1,-1,-1,-1,-1,-1,-1,-1,-1,-1,-1,-1,-1,-1,-1,-1,-1,-1,-1,-1,-1,-1,-1,-1,-1,-1,-1,-1,-1,-1,-1,-1,-1,-1,-1,-1,-1,-1,-1,-1,-1,-1,-1,-1,-1,-1,-1,-1,-1,-1,-1,-1,-1,-1,-1,-1,-1,-1,-1,-1,-1,-1,-1,-1,-1,-1,-1,-1,-1,-1,-1],"split_conditions":[-3.467444E-1,7.893836E-1,-1.17354235E-2,1.1877293E-1,1.1877293E-1,-1.4926553E-1,-4.6562687E-1,-4.734303E-1,-3.3272088E-2,1.981034E0,-3.3272088E-2,-1.492451E-1,-4.2374262E-1,-3.3272088E-2,4.823303E-2,-1.5678431E-1,8.604609E-1,9.8645186E-1,1.5067942E-1,2.3020537E0,1.5849289E0,1.1877293E-1,-3.8819125E-1,5.9519553E-1,5.9519553E-1,5.9519553E-1,1.5340223E0,-2.5289146E-2,-1.6614506E0,-1.5246842E0,7.128959E-1,4.823303E-2,-1.976839E0,-1.1208173E0,2.1114988E0,4.823303E-2,7.128959E-1,-6.789838E-1,1.506945E0,-3.3272088E-2,1.7898216E0,1.1877293E-1,-3.1413136E-3,-1.5665975E-1,3.555722E-1,-5.747176E-1,5.60465E-1,5.814787E-1,-1.976839E0,1.0726969E0,6.52093E-2,-1.5752386E0,-1.5016307E0,1.4824824E0,-1.0064969E0,2.325847E0,-5.6569713E-1,-1.9745924E0,9.7025055E-1,1.4609139E0,-1.976839E0,1.433364E0,-1.6595258E0,-1.9745924E0,5.100913E-1,1.8915124E0,2.4921727E0,-3.5213646E-1,1.3565066E0,5.7441887E-2,-1.2279582E-1,1.2570804E0,4.3427844E-2,-9.0939975E-1,3.0768135E0,1.5067942E-1,9.552528E-1,8.4713775E-1,5.2445716E-1,-4.734303E-1,-5.3692263E-1,-1.9930951E-1,2.9050797E-1,1.8116452E-2,-2.509383E-2,8.641673E-2,4.927412E-3,-1.2503889E-1,-8.520751E-2,1.3448926E-2,-1.1875709E-1,8.50161E-2,-2.9563213E-2,9.584102E-2,1.3101609E-1,4.2643216E-2,-5.1559757E-2,-6.0856678E-2,7.472865E-2,6.238329E-2,1.3321245E-1,-5.721855E-2,6.912003E-2,1.0237501E-1,3.472845E-2,1.5597683E-1,1.1244436E-1,4.1360088E-2,-1.1006031E-1,-2.8939215E-2,1.0105796E-1,-8.2104266E-2,1.1077255E-1,4.3441445E-2,-1.0398543E-1,1.2229979E-1,1.3558511E-1,6.734418E-2,1.10451065E-1,3.762317E-2,8.444702E-2,1.6119127E-1,8.0647044E-2,1.5227688E-2,1.7412537E-1,-8.758668E-2,4.0892446E-5,-8.865178E-2,-2.7810335E-2,3.0476619E-2,-1.1154299E-1,1.4432235E-1,1.1535907E-1,1.244932E-1,1.3880368E-1,1.1555525E-1,1.3905324E-1,1.0268438E-1,-1.9893656E-2,-1.514102E-1,-1.728171E-2,8.525693E-2,-4.215801E-2,1.234197E-1,8.16358E-2,3.3805832E-2,-7.510351E-2,1.4419177E-1,1.221267E-1,-7.456849E-2,1.0869434E-1,-6.444721E-2,2.1952756E-2,-1.3092393E-1,9.404567E-2,2.7051672E-2,-1.3907824E-1,1.1852559E-1,-1.49182E-1],"split_indices":[3,15,5,1,1,0,16,13,11,11,11,0,16,11,0,12,0,12,0,0,0,1,15,16,16,16,10,17,3,4,9,0,17,7,16,0,9,17,16,11,0,1,4,0,0,16,0,16,17,0,0,4,4,0,3,5,15,7,0,15,17,16,17,7,5,15,5,17,15,0,0,16,0,14,15,0,17,14,14,13,15,15,3,0,0,0,0,0,0,0,0,0,0,0,0,0,0,0,0,0,0,0,0,0,0,0,0,0,0,0,0,0,0,0,0,0,0,0,0,0,0,0,0,0,0,0,0,0,0,0,0,0,0,0,0,0,0,0,0,0,0,0,0,0,0,0,0,0,0,0,0,0,0,0,0,0,0,0,0],"split_type":[0,0,0,0,0,0,0,0,0,0,0,0,0,0,0,0,0,0,0,0,0,0,0,0,0,0,0,0,0,0,0,0,0,0,0,0,0,0,0,0,0,0,0,0,0,0,0,0,0,0,0,0,0,0,0,0,0,0,0,0,0,0,0,0,0,0,0,0,0,0,0,0,0,0,0,0,0,0,0,0,0,0,0,0,0,0,0,0,0,0,0,0,0,0,0,0,0,0,0,0,0,0,0,0,0,0,0,0,0,0,0,0,0,0,0,0,0,0,0,0,0,0,0,0,0,0,0,0,0,0,0,0,0,0,0,0,0,0,0,0,0,0,0,0,0,0,0,0,0,0,0,0,0,0,0,0,0,0,0],"sum_hessian":[7.111954E4,3.6149168E4,3.497037E4,1.0369485E4,2.5779684E4,1.9282297E4,1.5688073E4,7.8185024E3,2.5509832E3,1.7749492E4,8.0301914E3,4.5746523E3,1.1113421E4,4.3198784E3,3.498624E3,2.2245852E3,3.2639804E2,1.6597625E4,1.1518661E3,6.950298E3,1.0798932E3,4.166049E3,6.947372E3,3.5050754E3,8.1480273E2,2.613337E3,8.852872E2,1.0776614E3,1.1469238E3,2.7780615E2,4.8591896E1,9.155852E3,7.4417744E3,7.6665857E2,3.852075E2,6.946622E3,3.6759639E0,1.0531119E3,2.6781197E1,2.8785354E3,1.2875137E3,3.465485E3,3.4818872E3,2.8437E3,6.613756E2,7.025663E2,1.12236404E2,2.0272605E3,5.8607635E2,5.315797E2,3.537075E2,1.0721885E3,5.47285E0,6.727952E2,4.741286E2,4.6220924E1,2.3158524E2,1.9587826E1,2.9004072E1,7.215924E3,1.9399274E3,1.8434454E3,5.598329E3,5.18754E2,2.4790454E2,2.3455042E2,1.5065709E2,5.195872E3,1.75075E3,2.1846082E0,1.4913555E0,1.00674036E3,4.6371582E1,8.443585E0,1.833761E1,2.6983557E3,1.8017957E2,1.2708047E3,1.6708895E1,2.7074482E3,7.580366E2,1.5118801E3,1.9700071E3,1.4376881E3,1.4060117E3,4.7483337E2,1.8654222E2,1.9995284E2,5.0261346E2,8.661E1,2.5626402E1,1.9761838E3,5.1076653E1,1.12680374E2,4.73396E2,3.443996E2,1.871801E2,1.6854568E1,3.368529E2,9.755593E0,1.0624329E3,1.1442227E0,4.328627E0,6.24836E2,4.7959232E1,1.6006577E2,3.1406284E2,3.9288734E1,6.9321895E0,1.0752425E1,2.2083281E2,6.626302E0,1.2961524E1,2.974449E0,2.6029623E1,2.0381174E3,5.1778066E3,4.2176508E2,1.5181622E3,8.8423816E2,9.592073E2,1.3153839E3,4.2829453E3,4.194011E2,9.935293E1,3.614821E1,2.1175633E2,1.606963E2,7.38541E1,1.3494778E2,1.5709305E1,5.147423E3,4.844903E1,3.995253E2,1.3512247E3,3.6310272E2,6.4363763E2,3.5244358E1,1.1127223E1,6.7007923E0,1.742793E0,1.4748805E1,3.588806E0,2.0418846E3,6.564712E2,1.3899173E2,4.1187824E1,1.1984686E3,7.233614E1,1.3934834E0,1.5315412E1,1.6911719E3,1.0162764E3,2.0473139E1,7.3756354E2,7.38224E2,7.7365607E2,2.3799486E0,1.9676271E3],"tree_param":{"num_deleted":"0","num_feature":"18","num_nodes":"159","size_leaf_vector":"1"}},{"base_weights":[-9.069654E-4,8.9286745E-1,-9.3880814E-1,5.584714E-1,1.3437603E0,-1.4243324E-1,-3.543447E-1,7.711349E-2,9.7649455E-1,1.3691978E0,1.1459353E0,-1.4241292E-1,7.459974E-2,-1.9498126E-1,9.510508E-1,5.259917E-1,1.1112875E0,1.2591722E0,1.3915137E0,5.752594E-1,1.2494589E0,1.1073108E0,-5.374456E-1,-5.8356583E-1,2.3546167E-1,5.322814E-1,1.1225066E0,7.381333E-1,7.6445356E-2,1.186877E0,7.485694E-1,1.3299009E0,1.0232776E0,1.3994435E0,1.2466536E0,9.240256E-1,1.2151595E-1,1.3188399E0,8.8055617E-1,8.877616E-1,1.3810799E0,-8.546744E-1,5.903308E-1,-4.2400444E-1,-1.2435623E0,4.0631533E-1,-9.060143E-1,2.611557E-1,9.1039145E-1,1.1530987E0,3.397508E-1,6.339741E-1,1.1553403E0,-7.104886E-2,8.432334E-1,1.0643061E0,1.2503117E0,6.1659026E-1,1.2829157E0,1.3715608E0,1.2007191E0,-4.596453E-1,1.0443017E0,1.4141896E0,1.3648882E0,1.1206119E0,1.3538282E0,-4.857551E-1,9.9866605E-1,4.272876E-1,-8.9543045E-1,1.3477746E0,1.0650678E0,2.9571286E-1,1.0706965E0,4.4040388E-1,1.1869043E0,1.3995644E-1,1.2126806E0,-4.4015038E-1,-1.1935903E0,7.982643E-1,-1.0297102E0,-6.2443223E-2,-7.365845E-4,-8.835055E-2,-1.3388285E-1,-9.8446755E-5,5.433656E-2,-1.1954421E-1,-4.141681E-2,-1.8712796E-2,6.7613035E-2,1.5234445E-1,5.5311985E-2,8.756832E-2,1.226426E-1,-1.6654177E-2,8.345479E-2,3.088571E-2,7.446093E-2,1.1652505E-1,-4.304238E-2,-1.4976218E-2,1.0346917E-1,6.545931E-2,1.1540597E-1,8.311758E-2,1.1511459E-1,1.13037646E-1,1.2870122E-1,4.3302193E-2,8.949337E-2,1.2916638E-1,2.5915211E-2,4.1897934E-2,1.3760109E-1,1.24323905E-1,8.849151E-2,6.4288E-2,-1.590196E-1,1.07505575E-1,3.004779E-3,1.4222579E-1,1.3250701E-1,1.2814996E-1,1.3848138E-1,5.78338E-2,1.2118962E-1,6.291097E-2,1.3644883E-1,7.4094735E-2,-1.2343617E-1,-1.023819E-2,1.094594E-1,-5.584566E-2,7.138928E-2,-1.5233527E-1,2.965858E-2,-4.196621E-2,1.3501091E-1,2.9259026E-2,1.2809707E-1,7.80673E-2,-1.8177142E-2,1.1289344E-1,1.2438118E-2,1.4543737E-2,1.1894526E-1,1.2402754E-1,5.771161E-2,1.278135E-1,5.526627E-2,-8.17794E-2,1.3383045E-2,-6.7480974E-2,-1.3405238E-1,1.01785295E-1,3.4322068E-2,6.0013838E-2,-1.3928843E-1],"categories":[],"categories_nodes":[],"categories_segments":[],"categories_sizes":[],"default_left":[0,0,0,0,0,0,0,0,0,0,0,0,0,0,0,0,0,0,0,0,0,0,0,0,0,0,0,0,0,0,0,0,0,0,0,0,0,0,0,0,0,0,0,0,0,0,0,0,0,0,0,0,0,0,0,0,0,0,0,0,0,0,0,0,0,0,0,0,0,0,0,0,0,0,0,0,0,0,0,0,0,0,0,0,0,0,0,0,0,0,0,0,0,0,0,0,0,0,0,0,0,0,0,0,0,0,0,0,0,0,0,0,0,0,0,0,0,0,0,0,0,0,0,0,0,0,0,0,0,0,0,0,0,0,0,0,0,0,0,0,0,0,0,0,0,0,0,0,0,0,0,0,0,0,0,0,0,0,0,0,0],"id":5,"left_children":[1,3,5,7,9,-1,11,13,15,17,19,-1,21,23,25,27,29,31,33,35,37,39,41,43,45,47,49,51,53,55,57,59,61,63,65,67,69,71,73,75,77,79,81,83,85,87,89,91,93,95,97,99,101,103,105,107,109,111,113,115,117,119,121,123,125,127,129,131,133,135,137,139,141,143,145,147,149,-1,151,153,155,157,159,-1,-1,-1,-1,-1,-1,-1,-1,-1,-1,-1,-1,-1,-1,-1,-1,-1,-1,-1,-1,-1,-1,-1,-1,-1,-1,-1,-1,-1,-1,-1,-1,-1,-1,-1,-1,-1,-1,-1,-1,-1,-1,-1,-1,-1,-1,-1,-1,-1,-1,-1,-1,-1,-1,-1,-1,-1,-1,-1,-1,-1,-1,-1,-1,-1,-1,-1,-1,-1,-1,-1,-1,-1,-1,-1,-1,-1,-1],"loss_changes":[5.736753E4,5.2827793E3,9.475572E3,4.0488428E3,7.351953E1,0E0,6.954001E3,2.2244065E3,6.533828E2,3.0695312E1,1.0008008E2,0E0,6.8382085E3,1.1933358E3,1.5886584E2,2.3665314E2,2.2635742E2,3.5996094E1,1.0863281E1,4.164022E1,3.578076E1,2.4075195E2,2.4307944E3,3.9432214E2,6.605766E2,6.6096176E1,3.732007E1,7.25426E1,9.018522E1,5.198633E1,1.0020386E2,7.6054688E0,1.6717407E1,3.3710938E0,6.3032227E0,1.6166428E1,3.6395382E1,7.470215E0,2.5425934E1,2.9883752E2,3.8742676E0,7.443628E2,5.033825E2,2.5226184E2,2.3838623E1,1.6440347E2,6.228842E1,7.049045E1,5.8254257E1,2.9748657E1,1.533316E1,4.8384033E1,5.776367E0,5.840442E1,6.7868958E0,4.6523438E1,1.8409668E1,5.839035E1,2.1973877E0,4.904541E0,4.637085E0,1.0962738E1,1.5995483E1,3.3359375E0,3.4418945E0,1.2755707E1,1.5215454E0,8.413653E0,1.5095306E1,2.5745865E1,2.0732748E1,5.0428467E0,2.1123413E1,1.3613619E1,9.46637E0,1.9823602E2,4.2893555E1,0E0,7.2653503E0,5.17431E2,2.2140967E2,1.3182324E2,1.0154541E2,0E0,0E0,0E0,0E0,0E0,0E0,0E0,0E0,0E0,0E0,0E0,0E0,0E0,0E0,0E0,0E0,0E0,0E0,0E0,0E0,0E0,0E0,0E0,0E0,0E0,0E0,0E0,0E0,0E0,0E0,0E0,0E0,0E0,0E0,0E0,0E0,0E0,0E0,0E0,0E0,0E0,0E0,0E0,0E0,0E0,0E0,0E0,0E0,0E0,0E0,0E0,0E0,0E0,0E0,0E0,0E0,0E0,0E0,0E0,0E0,0E0,0E0,0E0,0E0,0E0,0E0,0E0,0E0,0E0,0E0,0E0,0E0,0E0,0E0,0E0,0E0,0E0,0E0],"parents":[2147483647,0,0,1,1,2,2,3,3,4,4,6,6,7,7,8,8,9,9,10,10,12,12,13,13,14,14,15,15,16,16,17,17,18,18,19,19,20,20,21,21,22,22,23,23,24,24,25,25,26,26,27,27,28,28,29,29,30,30,31,31,32,32,33,33,34,34,35,35,36,36,37,37,38,38,39,39,40,40,41,41,42,42,43,43,44,44,45,45,46,46,47,47,48,48,49,49,50,50,51,51,52,52,53,53,54,54,55,55,56,56,57,57,58,58,59,59,60,60,61,61,62,62,63,63,64,64,65,65,66,66,67,67,68,68,69,69,70,70,71,71,72,72,73,73,74,74,75,75,76,76,78,78,79,79,80,80,81,81,82,82],"right_children":[2,4,6,8,10,-1,12,14,16,18,20,-1,22,24,26,28,30,32,34,36,38,40,42,44,46,48,50,52,54,56,58,60,62,64,66,68,70,72,74,76,78,80,82,84,86,88,90,92,94,96,98,100,102,104,106,108,110,112,114,116,118,120,122,124,126,128,130,132,134,136,138,140,142,144,146,148,150,-1,152,154,156,158,160,-1,-1,-1,-1,-1,-1,-1,-1,-1,-1,-1,-1,-1,-1,-1,-1,-1,-1,-1,-1,-1,-1,-1,-1,-1,-1,-1,-1,-1,-1,-1,-1,-1,-1,-1,-1,-1,-1,-1,-1,-1,-1,-1,-1,-1,-1,-1,-1,-1,-1,-1,-1,-1,-1,-1,-1,-1,-1,-1,-1,-1,-1,-1,-1,-1,-1,-1,-1,-1,-1,-1,-1,-1,-1,-1,-1,-1,-1],"split_conditions":[-3.467444E-1,-3.761198E-1,-1.17354235E-2,-4.734303E-1,1.0899613E0,-1.4243324E-1,-4.6562687E-1,1.1877293E-1,5.7044417E-1,4.4589156E-1,4.1405258E-1,-1.4241292E-1,-4.2374262E-1,1.2054634E0,8.4482694E-1,-1.5665975E-1,1.5067942E-1,3.555722E-1,1.4824824E0,-5.421336E-2,5.60465E-1,-3.761198E-1,-3.761198E-1,-3.3272088E-2,9.1059136E-1,-1.6614506E0,-6.789838E-1,1.1877293E-1,1.1877293E-1,1.486818E0,1.1877293E-1,1.5340223E0,-3.0261693E0,1.5340223E0,1.433364E0,-1.5525442E0,2.3022396E-2,2.4921727E0,1.2054634E0,-4.734303E-1,1.1751434E0,-3.975369E-1,-2.0643577E-1,-1.6614506E0,9.898278E-1,-1.976839E0,1.5340223E0,1.5340223E0,-1.0064969E0,-1.976839E0,1.5340223E0,-1.976839E0,-8.1122465E-2,1.1150676E0,1.5340223E0,-1.5066974E0,-1.976839E0,1.5340223E0,-3.5213646E-1,-1.8982483E0,2.4921727E0,-1.5678431E-1,-6.789838E-1,7.6535773E-1,-1.976839E0,-1.5401866E0,-3.0261693E0,-1.6795954E0,-5.441239E-1,-7.029708E-1,7.5472647E-1,-5.354339E-1,1.2054634E0,-1.6693809E0,-4.2629805E-1,1.1877293E-1,6.6291136E-1,1.3995644E-1,-3.3272088E-2,-4.734303E-1,-2.9808998E-1,1.5067942E-1,-6.643114E-1,-6.2443223E-2,-7.365845E-4,-8.835055E-2,-1.3388285E-1,-9.8446755E-5,5.433656E-2,-1.1954421E-1,-4.141681E-2,-1.8712796E-2,6.7613035E-2,1.5234445E-1,5.5311985E-2,8.756832E-2,1.226426E-1,-1.6654177E-2,8.345479E-2,3.088571E-2,7.446093E-2,1.1652505E-1,-4.304238E-2,-1.4976218E-2,1.0346917E-1,6.545931E-2,1.1540597E-1,8.311758E-2,1.1511459E-1,1.13037646E-1,1.2870122E-1,4.3302193E-2,8.949337E-2,1.2916638E-1,2.5915211E-2,4.1897934E-2,1.3760109E-1,1.24323905E-1,8.849151E-2,6.4288E-2,-1.590196E-1,1.07505575E-1,3.004779E-3,1.4222579E-1,1.3250701E-1,1.2814996E-1,1.3848138E-1,5.78338E-2,1.2118962E-1,6.291097E-2,1.3644883E-1,7.4094735E-2,-1.2343617E-1,-1.023819E-2,1.094594E-1,-5.584566E-2,7.138928E-2,-1.5233527E-1,2.965858E-2,-4.196621E-2,1.3501091E-1,2.9259026E-2,1.2809707E-1,7.80673E-2,-1.8177142E-2,1.1289344E-1,1.2438118E-2,1.4543737E-2,1.1894526E-1,1.2402754E-1,5.771161E-2,1.278135E-1,5.526627E-2,-8.17794E-2,1.3383045E-2,-6.7480974E-2,-1.3405238E-1,1.01785295E-1,3.4322068E-2,6.0013838E-2,-1.3928843E-1],"split_indices":[3,6,5,13,11,0,16,1,15,15,15,0,16,15,15,0,0,0,0,0,0,6,6,11,11,3,17,1,1,15,1,10,1,10,16,4,16,5,15,13,0,15,15,3,5,17,10,10,3,17,10,17,17,16,10,4,17,10,17,0,5,12,17,0,17,4,1,17,15,16,16,16,15,17,14,1,0,0,11,13,16,0,4,0,0,0,0,0,0,0,0,0,0,0,0,0,0,0,0,0,0,0,0,0,0,0,0,0,0,0,0,0,0,0,0,0,0,0,0,0,0,0,0,0,0,0,0,0,0,0,0,0,0,0,0,0,0,0,0,0,0,0,0,0,0,0,0,0,0,0,0,0,0,0,0,0,0,0,0,0,0],"split_type":[0,0,0,0,0,0,0,0,0,0,0,0,0,0,0,0,0,0,0,0,0,0,0,0,0,0,0,0,0,0,0,0,0,0,0,0,0,0,0,0,0,0,0,0,0,0,0,0,0,0,0,0,0,0,0,0,0,0,0,0,0,0,0,0,0,0,0,0,0,0,0,0,0,0,0,0,0,0,0,0,0,0,0,0,0,0,0,0,0,0,0,0,0,0,0,0,0,0,0,0,0,0,0,0,0,0,0,0,0,0,0,0,0,0,0,0,0,0,0,0,0,0,0,0,0,0,0,0,0,0,0,0,0,0,0,0,0,0,0,0,0,0,0,0,0,0,0,0,0,0,0,0,0,0,0,0,0,0,0,0,0],"sum_hessian":[6.843345E4,3.5041062E4,3.3392387E4,2.0120969E4,1.4920095E4,1.8239268E4,1.5153122E4,9.352571E3,1.0768396E4,1.3214911E4,1.7051835E3,4.3362427E3,1.0816879E4,7.1326455E3,2.219926E3,2.4810781E3,8.287318E3,2.2380203E3,1.0976891E4,2.6283826E2,1.4423452E3,4.024867E3,6.792012E3,3.7484011E3,3.3842444E3,6.460633E2,1.5738628E3,1.6851915E3,7.958865E2,6.856226E3,1.4310924E3,1.7182089E3,5.198115E2,1.0398977E4,5.7791486E2,1.480242E2,1.1481406E2,1.211852E3,2.3049316E2,2.2359724E3,1.7888947E3,5.3011187E3,1.4908934E3,3.01994E3,7.284612E2,2.944206E3,4.4003836E2,3.7724704E2,2.6881622E2,1.5142103E3,5.9652447E1,1.350538E3,3.3465363E2,6.682531E2,1.27633354E2,2.3442866E3,4.5119395E3,1.149363E3,2.817294E2,1.2919495E3,4.262594E2,6.974927E0,5.1283655E2,7.2606587E3,3.1383174E3,2.7084567E2,3.0706915E2,7.166082E0,1.4085812E2,8.8718376E1,2.6095678E1,1.0839507E3,1.27901405E2,5.717785E1,1.7331532E2,8.9700476E2,1.3389675E3,1.6053691E3,1.8352557E2,2.3856082E3,2.9155105E3,1.3217527E3,1.6914073E2,2.0387041E3,9.812358E2,1.5456375E2,5.738974E2,7.415086E2,2.2026975E3,2.7612286E2,1.6391551E2,1.8160939E2,1.9563766E2,9.777577E1,1.7104047E2,3.1927097E2,1.1949395E3,2.9811626E1,2.9840818E1,3.4385724E2,1.00668066E3,3.3283875E2,1.8148805E0,6.2465125E2,4.3601906E1,8.136123E1,4.6272125E1,6.3910785E2,1.7051788E3,1.0646174E3,3.447322E3,6.9413477E2,4.5522824E2,2.7908295E2,2.64645E0,6.4497943E0,1.2854996E3,3.7308978E2,5.31696E1,3.7496169E0,3.22531E0,4.9768585E2,1.5150707E1,6.644177E3,6.1648224E2,6.178633E2,2.520454E3,4.008089E1,2.307648E2,5.3212576E0,3.017479E2,2.7196934E0,4.4463882E0,1.1283249E1,1.2957487E2,1.9770746E1,6.894763E1,1.6909986E1,9.185692E0,1.1939557E0,1.0827567E3,2.8453398E1,9.944801E1,2.8051838E1,2.912601E1,1.6308574E2,1.0229574E1,6.4443005E2,2.5257474E2,1.2302567E3,1.0871084E2,1.6611526E2,1.7410295E1,1.4386449E3,9.469633E2,6.4473334E2,2.2707773E3,8.9069617E2,4.3105655E2,3.0702389E1,1.3843834E2],"tree_param":{"num_deleted":"0","num_feature":"18","num_nodes":"161","size_leaf_vector":"1"}},{"base_weights":[-6.702045E-5,8.357347E-1,-8.9309466E-1,5.162638E-1,1.2762612E0,-1.3739075E-1,-5.2537256E-1,7.083411E-2,9.115249E-1,1.1122016E0,1.3194665E0,8.1377375E-1,-1.3909314E0,-3.868252E-1,5.889608E-1,3.5947883E-1,1.0599604E0,1.1785021E0,6.1439186E-1,1.3353932E0,1.1966472E0,5.071784E-1,1.2788403E0,-1.4268492E-1,-1.3776176E-1,-6.049958E-1,5.672116E-1,3.705104E-1,1.1403707E0,5.611259E-1,-4.78033E-2,1.1404783E0,7.436284E-1,1.2033403E0,5.803523E-1,7.651486E-1,-6.629044E-1,1.2785814E0,1.3518943E0,1.2769281E0,9.158154E-1,1.3653652E-2,9.520785E-1,1.3121238E0,1.0467147E0,-4.6746206E-1,-1.1672441E0,7.33687E-1,-8.380557E-2,5.166342E-1,-7.2088534E-1,1.2479749E0,9.9106306E-1,4.5611924E-1,1.0025336E0,-2.0526472E-1,7.954731E-1,9.579682E-1,1.2076107E0,3.326349E-1,9.236832E-1,1.2372568E0,9.7455794E-1,6.729647E-1,-9.776021E-1,6.479773E-1,1.7308877E-1,1.0310501E0,-8.25244E-1,1.2948775E0,1.0160099E0,1.3552253E0,1.2107648E0,1.2869531E0,7.8544843E-1,4.0248844E-1,1.07377E0,-2.575805E-1,9.6014917E-1,1.0575399E0,2.7830476E-1,1.3245687E0,9.332288E-1,1.1818823E0,4.2207167E-1,-1.1786073E-2,-6.865539E-2,-1.3140495E-1,-9.393398E-2,2.563389E-2,8.6280175E-2,3.6430683E-2,-5.852271E-2,7.966151E-2,2.761496E-2,-1.0704E-1,-1.9013723E-2,1.2746407E-1,9.93919E-2,1.1003429E-1,5.3224238E-3,5.4245856E-2,-3.8538952E-3,1.0625994E-1,2.576728E-2,-1.2831318E-1,-1.2771331E-2,5.6507792E-2,1.1672976E-1,8.784737E-2,1.232756E-1,1.17387705E-1,1.3151525E-1,4.452867E-2,-3.0803462E-2,8.212236E-2,1.2631316E-1,1.2028877E-1,1.4959136E-1,1.092317E-1,4.5981765E-2,7.819941E-2,-6.1655965E-2,-1.4715104E-1,2.6772186E-2,9.3440175E-2,1.6140072E-2,1.3097024E-1,2.629657E-2,-9.344005E-2,8.3570294E-2,1.4373049E-1,1.2760212E-1,1.06151834E-1,-5.7546087E-2,1.3632677E-1,1.3196215E-1,5.0963443E-2,1.2318075E-1,1.16437994E-1,1.3260765E-1,-2.0013219E-3,1.2332966E-1,5.564449E-2,-6.493102E-2,1.1210076E-1,1.9347271E-2,-4.437177E-3,-1.1550345E-1,1.15719855E-1,6.698627E-2,9.72584E-2,1.3204625E-1,4.7772113E-2,-2.9390374E-2,1.3409781E-1,1.1327902E-1,3.8128257E-2,1.002182E-1,1.2492825E-1,5.746391E-2,8.8052884E-2,-2.2485334E-2],"categories":[],"categories_nodes":[],"categories_segments":[],"categories_sizes":[],"default_left":[0,0,0,0,0,0,0,0,0,0,0,0,0,0,0,0,0,0,0,0,0,0,0,0,0,0,0,0,0,0,0,0,0,0,0,0,0,0,0,0,0,0,0,0,0,0,0,0,0,0,0,0,0,0,0,0,0,0,0,0,0,0,0,0,0,0,0,0,0,0,0,0,0,0,0,0,0,0,0,0,0,0,0,0,0,0,0,0,0,0,0,0,0,0,0,0,0,0,0,0,0,0,0,0,0,0,0,0,0,0,0,0,0,0,0,0,0,0,0,0,0,0,0,0,0,0,0,0,0,0,0,0,0,0,0,0,0,0,0,0,0,0,0,0,0,0,0,0,0,0,0,0,0,0,0,0,0,0,0,0,0,0,0],"id":6,"left_children":[1,3,5,7,9,-1,11,13,15,17,19,21,23,25,27,29,31,33,35,37,39,41,43,-1,-1,45,47,49,51,53,55,57,59,61,63,65,67,69,71,73,75,77,79,81,83,85,87,89,91,93,95,97,99,101,103,105,107,109,111,113,115,117,119,121,123,125,-1,127,129,131,133,135,137,139,141,143,145,147,149,151,153,155,157,159,161,-1,-1,-1,-1,-1,-1,-1,-1,-1,-1,-1,-1,-1,-1,-1,-1,-1,-1,-1,-1,-1,-1,-1,-1,-1,-1,-1,-1,-1,-1,-1,-1,-1,-1,-1,-1,-1,-1,-1,-1,-1,-1,-1,-1,-1,-1,-1,-1,-1,-1,-1,-1,-1,-1,-1,-1,-1,-1,-1,-1,-1,-1,-1,-1,-1,-1,-1,-1,-1,-1,-1,-1,-1,-1,-1,-1,-1,-1],"loss_changes":[4.886736E4,4.7588984E3,5.595533E3,3.451562E3,9.9296875E1,0E0,2.079197E4,2.186165E3,8.507832E2,9.728906E1,2.0402344E1,1.00353467E3,3.2460938E0,1.0192995E3,5.2042944E2,1.8092188E2,2.0764258E2,3.821997E1,6.811842E1,7.595703E0,2.8154297E1,9.322993E2,2.0239746E1,0E0,0E0,3.075923E2,9.886548E1,4.9452438E2,1.8467896E1,6.783124E1,9.713764E1,7.876465E1,1.22806946E2,1.8303223E1,1.6005753E1,3.4467773E1,1.1191374E1,8.343506E0,1.9736328E0,3.9603271E0,2.329985E1,5.1729974E2,1.5837903E2,1.0282227E1,2.9538727E1,2.4527612E2,2.4946167E1,4.4530823E1,4.212945E1,1.8381305E2,6.774428E1,3.5357666E0,5.3085785E1,5.0929535E1,1.2356293E1,5.1344505E1,9.202095E0,3.733972E1,1.5742676E1,3.6828148E1,3.9178284E1,1.7632324E1,1.9458893E1,1.468166E1,4.3157673E0,3.9162148E1,0E0,4.545691E-1,7.10281E0,3.864502E0,1.0500916E1,3.5058594E-1,2.1271667E0,3.1901855E0,8.225772E0,1.1772674E1,9.065277E0,2.9964084E2,2.4897552E1,4.183618E1,3.4780777E1,5.916504E0,2.703125E0,1.1229828E1,1.9430004E1,0E0,0E0,0E0,0E0,0E0,0E0,0E0,0E0,0E0,0E0,0E0,0E0,0E0,0E0,0E0,0E0,0E0,0E0,0E0,0E0,0E0,0E0,0E0,0E0,0E0,0E0,0E0,0E0,0E0,0E0,0E0,0E0,0E0,0E0,0E0,0E0,0E0,0E0,0E0,0E0,0E0,0E0,0E0,0E0,0E0,0E0,0E0,0E0,0E0,0E0,0E0,0E0,0E0,0E0,0E0,0E0,0E0,0E0,0E0,0E0,0E0,0E0,0E0,0E0,0E0,0E0,0E0,0E0,0E0,0E0,0E0,0E0,0E0,0E0,0E0,0E0,0E0,0E0],"parents":[2147483647,0,0,1,1,2,2,3,3,4,4,6,6,7,7,8,8,9,9,10,10,11,11,12,12,13,13,14,14,15,15,16,16,17,17,18,18,19,19,20,20,21,21,22,22,25,25,26,26,27,27,28,28,29,29,30,30,31,31,32,32,33,33,34,34,35,35,36,36,37,37,38,38,39,39,40,40,41,41,42,42,43,43,44,44,45,45,46,46,47,47,48,48,49,49,50,50,51,51,52,52,53,53,54,54,55,55,56,56,57,57,58,58,59,59,60,60,61,61,62,62,63,63,64,64,65,65,67,67,68,68,69,69,70,70,71,71,72,72,73,73,74,74,75,75,76,76,77,77,78,78,79,79,80,80,81,81,82,82,83,83,84,84],"right_children":[2,4,6,8,10,-1,12,14,16,18,20,22,24,26,28,30,32,34,36,38,40,42,44,-1,-1,46,48,50,52,54,56,58,60,62,64,66,68,70,72,74,76,78,80,82,84,86,88,90,92,94,96,98,100,102,104,106,108,110,112,114,116,118,120,122,124,126,-1,128,130,132,134,136,138,140,142,144,146,148,150,152,154,156,158,160,162,-1,-1,-1,-1,-1,-1,-1,-1,-1,-1,-1,-1,-1,-1,-1,-1,-1,-1,-1,-1,-1,-1,-1,-1,-1,-1,-1,-1,-1,-1,-1,-1,-1,-1,-1,-1,-1,-1,-1,-1,-1,-1,-1,-1,-1,-1,-1,-1,-1,-1,-1,-1,-1,-1,-1,-1,-1,-1,-1,-1,-1,-1,-1,-1,-1,-1,-1,-1,-1,-1,-1,-1,-1,-1,-1,-1,-1,-1],"split_conditions":[-3.467444E-1,-3.761198E-1,-2.0846237E-1,-4.734303E-1,-2.0846237E-1,-1.3739075E-1,-8.7533385E-2,3.0658257E-1,-3.4038156E-1,-3.3272088E-2,1.0899613E0,-3.761198E-1,-3.975369E-1,1.1877293E-1,1.1877293E-1,-1.5665975E-1,4.823303E-2,1.5849289E0,-1.0082837E0,3.0658257E-1,2.5312582E-1,-4.734303E-1,-3.3272088E-2,-1.4268492E-1,-1.3776176E-1,-3.3272088E-2,-3.3272088E-2,9.1059136E-1,7.128959E-1,1.1877293E-1,1.1877293E-1,3.0658257E-1,3.0658257E-1,-1.0064969E0,4.980837E0,-1.6614506E0,-1.1886898E0,1.4824824E0,2.2216356E0,2.2216356E0,3.0658257E-1,1.1877293E-1,3.555722E-1,8.7978995E-1,7.6535773E-1,7.128959E-1,-1.8374648E0,-1.976839E0,7.128959E-1,7.128959E-1,1.5340223E0,-1.0058311E0,6.6291136E-1,-1.0058311E0,-1.0064969E0,-1.5221378E-1,1.5340223E0,1.1877293E-1,1.1877293E-1,2.746786E-1,1.1877293E-1,-1.6614506E0,3.555722E-1,-4.4712758E-1,-6.036954E-1,-5.421336E-2,1.7308877E-1,-6.339013E-1,2.3341742E-1,-1.147128E-1,4.980837E0,5.60465E-1,-1.3855302E0,3.0658257E-1,1.1877293E-1,1.528518E0,-4.2629805E-1,-3.3272088E-2,7.128959E-1,1.1877293E-1,9.552528E-1,1.2775897E0,6.52093E-2,1.5340223E0,6.284055E-1,-1.1786073E-2,-6.865539E-2,-1.3140495E-1,-9.393398E-2,2.563389E-2,8.6280175E-2,3.6430683E-2,-5.852271E-2,7.966151E-2,2.761496E-2,-1.0704E-1,-1.9013723E-2,1.2746407E-1,9.93919E-2,1.1003429E-1,5.3224238E-3,5.4245856E-2,-3.8538952E-3,1.0625994E-1,2.576728E-2,-1.2831318E-1,-1.2771331E-2,5.6507792E-2,1.1672976E-1,8.784737E-2,1.232756E-1,1.17387705E-1,1.3151525E-1,4.452867E-2,-3.0803462E-2,8.212236E-2,1.2631316E-1,1.2028877E-1,1.4959136E-1,1.092317E-1,4.5981765E-2,7.819941E-2,-6.1655965E-2,-1.4715104E-1,2.6772186E-2,9.3440175E-2,1.6140072E-2,1.3097024E-1,2.629657E-2,-9.344005E-2,8.3570294E-2,1.4373049E-1,1.2760212E-1,1.06151834E-1,-5.7546087E-2,1.3632677E-1,1.3196215E-1,5.0963443E-2,1.2318075E-1,1.16437994E-1,1.3260765E-1,-2.0013219E-3,1.2332966E-1,5.564449E-2,-6.493102E-2,1.1210076E-1,1.9347271E-2,-4.437177E-3,-1.1550345E-1,1.15719855E-1,6.698627E-2,9.72584E-2,1.3204625E-1,4.7772113E-2,-2.9390374E-2,1.3409781E-1,1.1327902E-1,3.8128257E-2,1.002182E-1,1.2492825E-1,5.746391E-2,8.8052884E-2,-2.2485334E-2],"split_indices":[3,6,2,13,2,0,2,2,2,11,11,6,15,1,1,0,0,0,3,2,0,13,11,0,0,11,11,11,9,1,1,2,2,3,8,3,0,0,2,2,2,1,0,14,0,9,14,17,9,9,10,17,0,17,3,0,10,1,1,2,1,3,0,14,2,0,0,2,15,2,8,0,0,2,1,0,14,11,9,1,17,0,0,10,17,0,0,0,0,0,0,0,0,0,0,0,0,0,0,0,0,0,0,0,0,0,0,0,0,0,0,0,0,0,0,0,0,0,0,0,0,0,0,0,0,0,0,0,0,0,0,0,0,0,0,0,0,0,0,0,0,0,0,0,0,0,0,0,0,0,0,0,0,0,0,0,0,0,0,0,0,0,0],"split_type":[0,0,0,0,0,0,0,0,0,0,0,0,0,0,0,0,0,0,0,0,0,0,0,0,0,0,0,0,0,0,0,0,0,0,0,0,0,0,0,0,0,0,0,0,0,0,0,0,0,0,0,0,0,0,0,0,0,0,0,0,0,0,0,0,0,0,0,0,0,0,0,0,0,0,0,0,0,0,0,0,0,0,0,0,0,0,0,0,0,0,0,0,0,0,0,0,0,0,0,0,0,0,0,0,0,0,0,0,0,0,0,0,0,0,0,0,0,0,0,0,0,0,0,0,0,0,0,0,0,0,0,0,0,0,0,0,0,0,0,0,0,0,0,0,0,0,0,0,0,0,0,0,0,0,0,0,0,0,0,0,0,0,0],"sum_hessian":[6.5469258E4,3.3818207E4,3.1651049E4,1.9603715E4,1.4214494E4,1.3715149E4,1.79359E4,9.217481E3,1.0386233E4,2.9686533E3,1.1245841E4,7.0415894E3,1.0894311E4,4.8944688E3,4.323012E3,2.2016191E3,8.1846143E3,2.6185376E3,3.501158E2,9.946193E3,1.299647E3,4.245097E3,2.7964922E3,2.9174841E3,7.976826E3,3.983811E3,9.106579E2,3.097541E3,1.2254713E3,1.4722997E3,7.2931934E2,6.52194E3,1.6626743E3,2.5131665E3,1.0537119E2,3.1351343E2,3.6602398E1,2.2563284E3,7.689865E3,1.00795685E3,2.9169016E2,2.0130569E3,2.2320403E3,2.4417297E3,3.5476245E2,3.2023125E3,7.814985E2,7.251091E2,1.8554883E2,2.732254E3,3.6528693E2,7.079225E2,5.175488E2,1.1910046E3,2.812951E2,6.1520184E2,1.1411744E2,1.7579498E3,4.76399E3,5.0737857E2,1.1552958E3,2.1848582E3,3.283082E2,9.999504E1,5.376147E0,2.8108133E2,3.2432095E1,2.733031E0,3.386937E1,2.1207732E3,1.3555515E2,7.504138E3,1.8572707E2,9.862218E2,2.1735039E1,6.947049E1,2.2221967E2,1.5652393E3,4.4781766E2,1.9294644E3,3.0257602E2,2.3616638E3,8.0065865E1,2.909181E2,6.384435E1,1.234299E3,1.9680135E3,4.7242108E2,3.0907742E2,1.5500986E2,5.7009924E2,9.81274E1,8.7421425E1,1.2613878E3,1.4708661E3,2.1963405E2,1.4565288E2,6.3704126E2,7.088122E1,4.63381E2,5.4167828E1,1.01393286E3,1.7707178E2,2.5990933E2,2.1385765E1,4.0248783E1,5.7495306E2,7.201452E1,4.2102924E1,1.3667529E3,3.911969E2,3.6355159E3,1.1284741E3,4.3176447E2,7.5614105E1,8.900586E2,2.652372E2,1.9335834E3,2.5127483E2,2.6627042E2,6.203776E1,9.2562454E1,7.432586E0,3.719376E0,1.6567707E0,1.7635133E2,1.0472999E2,1.4880345E0,1.2449964E0,3.2191208E1,1.6781585E0,2.3915413E2,1.881619E3,1.3211041E2,3.4447346E0,6.0910093E3,1.4131288E3,6.1465616E0,1.795805E2,2.460647E2,7.401571E2,8.107999E0,1.3627041E1,6.1010998E1,8.459492E0,2.1064293E2,1.1576726E1,1.2656156E3,2.9962363E2,2.6496817E2,1.8284949E2,1.4618182E3,4.676461E2,2.2450165E2,7.807436E1,2.1699976E3,1.9166632E2,9.616748E0,7.044912E1,2.6090225E2,3.0015835E1,3.7153576E1,2.6690771E1],"tree_param":{"num_deleted":"0","num_feature":"18","num_nodes":"163","size_leaf_vector":"1"}},{"base_weights":[-2.614863E-3,7.831252E-1,-8.5618216E-1,4.7872925E-1,1.212778E0,-1.3235825E-1,-3.0907243E-1,6.0853235E-2,8.559966E-1,1.0398886E0,1.2593715E0,-1.3364667E0,1.601834E-1,-3.5384688E-1,5.3890014E-1,3.3315772E-1,1.0006918E0,1.1075245E0,5.473151E-1,1.2791748E0,1.1648494E0,-1.320514E-1,-1.4506255E-1,1.0865966E0,-1.3782793E0,-5.4775333E-1,5.0179976E-1,3.3005404E-1,1.0841506E0,4.7056937E-1,-1.8508753E-1,1.0656573E0,5.95685E-1,1.1685654E0,8.318502E-1,6.7851305E-1,-5.267204E-1,1.2219064E0,1.296081E0,1.2041223E0,8.173318E-1,9.142341E-1,1.312166E0,-1.4249651E-1,-1.3325332E-1,-4.1580266E-1,-1.1034367E0,6.4965945E-1,-5.897559E-2,4.6373233E-1,-6.6768765E-1,1.1452948E0,7.8927976E-1,3.5625967E-1,9.5291966E-1,-8.2317704E-1,-3.4120146E-2,8.646413E-1,1.1416929E0,8.981005E-1,3.3358353E-1,1.1952093E0,9.817477E-1,1.13509E0,6.6555595E-1,5.6822824E-1,1.6145818E-1,9.495231E-1,-7.001465E-1,1.3817237E-1,1.2013658E0,1.3002592E0,1.1262741E0,1.0775506E0,1.2434124E0,3.3526614E-1,9.700751E-1,9.913157E-1,-2.3637182E-1,1.2491577E0,1.3970932E0,-8.514988E-3,-6.250594E-2,-8.50439E-2,-1.2310102E-1,1.9252943E-2,7.740265E-2,4.015223E-2,-5.4364797E-2,7.24013E-2,2.4584947E-2,-2.231208E-2,-9.903722E-2,1.16920546E-1,7.545153E-2,9.277415E-2,-2.8752977E-2,6.099389E-2,1.7661816E-2,1.0135647E-1,2.5387404E-2,1.29937E-2,-1.026892E-1,1.7896257E-1,-1.2377561E-2,7.831001E-2,1.1629523E-1,1.1017829E-1,1.2676445E-1,9.569662E-2,-2.0129515E-2,2.1603813E-2,1.0455855E-1,1.1677966E-1,1.4193307E-1,-1.2425714E-3,1.01383224E-1,1.1947781E-1,4.6264313E-2,7.750509E-2,-2.8025499E-2,8.219684E-2,3.4382448E-3,1.4170152E-1,9.3521486E-4,-9.008501E-2,6.568773E-2,1.1495029E-1,1.2754464E-1,1.3064419E-1,1.251856E-1,3.9897837E-2,1.1525184E-1,1.1193494E-1,7.3260814E-2,1.2533186E-1,1.0790807E-1,4.9973737E-2,-6.340959E-2,1.02521025E-1,7.786931E-3,8.057394E-2,1.2449195E-1,-8.3122395E-2,9.495638E-2,1.2541288E-1,5.1325597E-2,1.4508699E-1,1.3294362E-1],"categories":[],"categories_nodes":[],"categories_segments":[],"categories_sizes":[],"default_left":[0,0,0,0,0,0,0,0,0,0,0,0,0,0,0,0,0,0,0,0,0,0,0,0,0,0,0,0,0,0,0,0,0,0,0,0,0,0,0,0,0,0,0,0,0,0,0,0,0,0,0,0,0,0,0,0,0,0,0,0,0,0,0,0,0,0,0,0,0,0,0,0,0,0,0,0,0,0,0,0,0,0,0,0,0,0,0,0,0,0,0,0,0,0,0,0,0,0,0,0,0,0,0,0,0,0,0,0,0,0,0,0,0,0,0,0,0,0,0,0,0,0,0,0,0,0,0,0,0,0,0,0,0,0,0,0,0,0,0,0,0,0,0,0,0,0,0,0,0],"id":7,"left_children":[1,3,5,7,9,-1,11,13,15,17,19,21,23,25,27,29,31,33,35,37,39,-1,-1,41,43,45,47,49,51,53,55,57,59,61,63,65,67,69,71,73,75,77,79,-1,-1,81,83,85,87,89,91,93,95,97,99,101,103,105,107,109,111,113,115,117,119,121,-1,123,125,-1,127,129,131,133,135,137,139,141,143,145,147,-1,-1,-1,-1,-1,-1,-1,-1,-1,-1,-1,-1,-1,-1,-1,-1,-1,-1,-1,-1,-1,-1,-1,-1,-1,-1,-1,-1,-1,-1,-1,-1,-1,-1,-1,-1,-1,-1,-1,-1,-1,-1,-1,-1,-1,-1,-1,-1,-1,-1,-1,-1,-1,-1,-1,-1,-1,-1,-1,-1,-1,-1,-1,-1,-1,-1,-1,-1],"loss_changes":[4.1865953E4,4.250291E3,7.6507305E3,2.9994478E3,1.07259766E2,0E0,6.6465664E3,1.7900231E3,7.56103E2,9.490576E1,1.8375E1,5.9560547E0,1.3490694E4,8.0248975E2,4.772561E2,1.5453809E2,2.0541113E2,4.14292E1,4.9409348E1,6.9003906E0,2.4255615E1,0E0,0E0,2.2849463E2,5.6992188E0,2.8859985E2,7.414961E1,4.0498657E2,2.003125E1,9.419876E1,4.3827866E1,1.0213916E2,8.5683014E1,9.083252E0,2.2454315E1,3.11521E1,1.0510436E1,4.9543457E0,3.3232422E0,6.912842E0,1.37302475E1,2.9754028E2,1.1935547E1,0E0,0E0,2.2048663E2,2.3349731E1,4.006778E1,4.2047367E1,1.5159143E2,5.1263718E1,8.083252E0,3.0479889E1,6.313188E1,1.3643097E1,1.7037476E1,6.0589558E1,4.4232666E1,2.31958E1,3.274893E1,4.8542465E1,9.393311E0,8.394897E0,5.933136E0,3.1251541E1,3.7825478E1,0E0,1.9502158E0,1.0121429E1,0E0,5.4226074E0,3.3398438E-1,2.7767334E0,4.95578E0,6.986084E-1,7.8832355E0,7.0249176E0,1.4686353E2,1.4983594E2,4.760254E0,2.0021973E0,0E0,0E0,0E0,0E0,0E0,0E0,0E0,0E0,0E0,0E0,0E0,0E0,0E0,0E0,0E0,0E0,0E0,0E0,0E0,0E0,0E0,0E0,0E0,0E0,0E0,0E0,0E0,0E0,0E0,0E0,0E0,0E0,0E0,0E0,0E0,0E0,0E0,0E0,0E0,0E0,0E0,0E0,0E0,0E0,0E0,0E0,0E0,0E0,0E0,0E0,0E0,0E0,0E0,0E0,0E0,0E0,0E0,0E0,0E0,0E0,0E0,0E0,0E0,0E0,0E0,0E0,0E0,0E0],"parents":[2147483647,0,0,1,1,2,2,3,3,4,4,6,6,7,7,8,8,9,9,10,10,11,11,12,12,13,13,14,14,15,15,16,16,17,17,18,18,19,19,20,20,23,23,24,24,25,25,26,26,27,27,28,28,29,29,30,30,31,31,32,32,33,33,34,34,35,35,36,36,37,37,38,38,39,39,40,40,41,41,42,42,45,45,46,46,47,47,48,48,49,49,50,50,51,51,52,52,53,53,54,54,55,55,56,56,57,57,58,58,59,59,60,60,61,61,62,62,63,63,64,64,65,65,67,67,68,68,70,70,71,71,72,72,73,73,74,74,75,75,76,76,77,77,78,78,79,79,80,80],"right_children":[2,4,6,8,10,-1,12,14,16,18,20,22,24,26,28,30,32,34,36,38,40,-1,-1,42,44,46,48,50,52,54,56,58,60,62,64,66,68,70,72,74,76,78,80,-1,-1,82,84,86,88,90,92,94,96,98,100,102,104,106,108,110,112,114,116,118,120,122,-1,124,126,-1,128,130,132,134,136,138,140,142,144,146,148,-1,-1,-1,-1,-1,-1,-1,-1,-1,-1,-1,-1,-1,-1,-1,-1,-1,-1,-1,-1,-1,-1,-1,-1,-1,-1,-1,-1,-1,-1,-1,-1,-1,-1,-1,-1,-1,-1,-1,-1,-1,-1,-1,-1,-1,-1,-1,-1,-1,-1,-1,-1,-1,-1,-1,-1,-1,-1,-1,-1,-1,-1,-1,-1,-1,-1,-1,-1],"split_conditions":[-3.467444E-1,-3.761198E-1,-1.17354235E-2,-4.734303E-1,-2.0846237E-1,-1.3235825E-1,-2.0846237E-1,3.0658257E-1,-3.4038156E-1,-3.3272088E-2,6.6291136E-1,-4.6562687E-1,-8.7533385E-2,1.1877293E-1,1.1877293E-1,2.5312582E-1,3.555722E-1,6.6291136E-1,-1.0082837E0,3.0658257E-1,1.0899613E0,-1.320514E-1,-1.4506255E-1,-3.761198E-1,5.482225E-1,-3.3272088E-2,-3.3272088E-2,9.1059136E-1,-3.3272088E-2,1.1877293E-1,-1.2801412E0,3.0658257E-1,7.128959E-1,2.4921727E0,-1.5678431E-1,-1.6614506E0,-1.16541E0,-1.147128E-1,2.2216356E0,3.0658257E-1,3.0658257E-1,-3.3272088E-2,-4.5739043E-1,-1.4249651E-1,-1.3325332E-1,7.128959E-1,7.128959E-1,-1.976839E0,7.128959E-1,7.128959E-1,7.128959E-1,-4.2629805E-1,3.8629028E-1,-1.6595258E0,-1.0064969E0,4.5801857E-1,-1.1530899E0,1.1877293E-1,1.1877293E-1,4.980837E0,1.1877293E-1,2.0187452E0,-1.56559E0,-1.0058311E0,-1.0383463E0,1.5067942E-1,1.6145818E-1,-8.866886E-2,5.9519553E-1,1.3817237E-1,-4.734303E-1,-3.3272088E-2,-1.3855302E0,1.7898216E0,-4.2629805E-1,-1.2588863E0,-4.2629805E-1,-4.5739043E-1,1.1877293E-1,9.300241E-1,-3.120514E-1,-8.514988E-3,-6.250594E-2,-8.50439E-2,-1.2310102E-1,1.9252943E-2,7.740265E-2,4.015223E-2,-5.4364797E-2,7.24013E-2,2.4584947E-2,-2.231208E-2,-9.903722E-2,1.16920546E-1,7.545153E-2,9.277415E-2,-2.8752977E-2,6.099389E-2,1.7661816E-2,1.0135647E-1,2.5387404E-2,1.29937E-2,-1.026892E-1,1.7896257E-1,-1.2377561E-2,7.831001E-2,1.1629523E-1,1.1017829E-1,1.2676445E-1,9.569662E-2,-2.0129515E-2,2.1603813E-2,1.0455855E-1,1.1677966E-1,1.4193307E-1,-1.2425714E-3,1.01383224E-1,1.1947781E-1,4.6264313E-2,7.750509E-2,-2.8025499E-2,8.219684E-2,3.4382448E-3,1.4170152E-1,9.3521486E-4,-9.008501E-2,6.568773E-2,1.1495029E-1,1.2754464E-1,1.3064419E-1,1.251856E-1,3.9897837E-2,1.1525184E-1,1.1193494E-1,7.3260814E-2,1.2533186E-1,1.0790807E-1,4.9973737E-2,-6.340959E-2,1.02521025E-1,7.786931E-3,8.057394E-2,1.2449195E-1,-8.3122395E-2,9.495638E-2,1.2541288E-1,5.1325597E-2,1.4508699E-1,1.3294362E-1],"split_indices":[3,6,5,13,2,0,2,2,2,11,0,16,2,1,1,0,0,0,3,2,11,0,0,6,2,11,11,11,11,1,2,2,9,5,12,3,0,2,2,2,2,11,16,0,0,9,9,17,9,9,9,14,0,17,3,0,2,1,1,8,1,5,4,17,3,0,0,16,16,0,13,11,0,0,14,3,14,16,1,14,16,0,0,0,0,0,0,0,0,0,0,0,0,0,0,0,0,0,0,0,0,0,0,0,0,0,0,0,0,0,0,0,0,0,0,0,0,0,0,0,0,0,0,0,0,0,0,0,0,0,0,0,0,0,0,0,0,0,0,0,0,0,0,0,0,0,0,0,0],"split_type":[0,0,0,0,0,0,0,0,0,0,0,0,0,0,0,0,0,0,0,0,0,0,0,0,0,0,0,0,0,0,0,0,0,0,0,0,0,0,0,0,0,0,0,0,0,0,0,0,0,0,0,0,0,0,0,0,0,0,0,0,0,0,0,0,0,0,0,0,0,0,0,0,0,0,0,0,0,0,0,0,0,0,0,0,0,0,0,0,0,0,0,0,0,0,0,0,0,0,0,0,0,0,0,0,0,0,0,0,0,0,0,0,0,0,0,0,0,0,0,0,0,0,0,0,0,0,0,0,0,0,0,0,0,0,0,0,0,0,0,0,0,0,0,0,0,0,0,0,0],"sum_hessian":[6.242095E4,3.250187E4,2.9919082E4,1.9025203E4,1.3476665E4,1.6134138E4,1.3784944E4,9.027336E3,9.997868E3,2.865883E3,1.0610782E4,4.3215166E3,9.463428E3,4.834084E3,4.193252E3,2.1678608E3,7.830007E3,2.5187778E3,3.471054E2,8.762436E3,1.8483464E3,3.8026846E3,5.188321E2,5.906822E3,3.556606E3,3.9412734E3,8.928108E2,3.0330967E3,1.1601552E3,1.7135963E3,4.5426456E2,6.746239E3,1.0837681E3,2.0595134E3,4.5926437E2,3.0964877E2,3.7456627E1,2.013869E3,6.748567E3,1.658459E3,1.8988747E2,3.3511716E3,2.5556501E3,1.7453064E3,1.8112996E3,3.1863918E3,7.548815E2,7.063966E2,1.8641417E2,2.6752056E3,3.5789114E2,9.585142E2,2.0164093E2,1.3867064E3,3.2688983E2,8.6060875E1,3.682037E2,1.8548712E3,4.8913677E3,5.020597E2,5.817083E2,1.797725E3,2.617883E2,1.605937E2,2.986707E2,2.784497E2,3.1199081E1,3.4672747E0,3.398935E1,2.2180783E2,1.7920612E3,6.5800015E3,1.6856548E2,3.9959628E2,1.2588627E3,4.6458134E1,1.4342934E2,3.1408948E3,2.102769E2,1.4761715E3,1.0794786E3,1.2355187E3,1.9508732E3,2.55618E2,4.9926352E2,1.5162474E2,5.547719E2,9.5679E1,9.073517E1,1.2179418E3,1.4572638E3,1.5123042E2,2.0666072E2,9.013701E2,5.7144104E1,1.7878966E2,2.2851269E1,5.73893E2,8.128134E2,3.003807E2,2.6509144E1,1.5218896E1,7.084198E1,1.6364315E1,3.518394E2,1.4595413E3,3.953299E2,3.7218E3,1.1695679E3,4.7666678E2,2.5392918E1,5.0040002E2,8.1308304E1,1.6073391E3,1.9038594E2,8.203594E0,2.5358472E2,1.4678769E2,1.380602E1,2.6784344E2,3.0827234E1,1.8837445E2,9.007525E1,1.977026E0,1.4902487E0,2.9902878E1,4.086473E0,1.0638138E3,7.282474E2,5.8116787E3,7.683229E2,6.435094E0,1.6213037E2,3.5440585E2,4.5190434E1,1.1810396E3,7.782313E1,4.0133217E1,6.324918E0,1.3494136E2,8.48797E0,1.8161163E3,1.3247784E3,1.4023546E2,7.004144E1,1.4655671E3,1.0604357E1,5.9004376E2,4.8943494E2],"tree_param":{"num_deleted":"0","num_feature":"18","num_nodes":"149","size_leaf_vector":"1"}},{"base_weights":[-2.165564E-3,-8.24341E-1,7.3571414E-1,-1.2834957E-1,-2.9365766E-1,4.44301E-1,1.1579092E0,-1.2941692E0,1.5418693E-1,5.959514E-2,8.122685E-1,9.737014E-1,1.2086535E0,-1.2808077E-1,-1.3899194E-1,1.0287781E0,-1.3298193E0,-3.3049983E-1,4.9884775E-1,5.091625E-1,1.0448626E0,1.043253E0,4.8037276E-1,1.2264832E0,1.0751114E0,8.550553E-1,1.2607057E0,-1.3983594E-1,-1.3014422E-1,-5.097321E-1,4.75491E-1,6.3435805E-1,1.1867705E-2,3.1322598E-1,1.0375257E0,1.0934551E0,7.317567E-1,1.0713264E0,3.8706842E-1,2.0188002E-1,8.180294E-1,1.2337142E0,1.0521802E0,1.1640189E0,7.750798E-1,5.36676E-1,1.0874627E0,1.2020247E0,1.3387938E0,-3.9107165E-1,-1.0374899E0,6.193435E-1,-5.85132E-2,4.3079332E-1,8.2875705E-1,-4.5386937E-1,1.7032196E-1,4.3815482E-1,-6.213753E-1,1.1486024E0,8.8329667E-1,1.0522462E0,1.2245698E0,5.079404E-1,9.932209E-1,1.1070912E0,8.144145E-1,5.145887E-1,-9.1366494E-1,-9.1092056E-1,3.4704936E-1,9.749158E-1,1.2225397E-1,1.1785324E0,1.2499566E0,8.187733E-1,1.134597E0,5.306231E-1,1.172045E0,2.9466867E-1,9.310912E-1,3.1624965E-2,1.1232375E-1,1.1445977E-1,5.532319E-2,1.239747E-1,1.0768181E-1,1.3434619E-1,7.4304156E-2,-7.684268E-2,-2.3123335E-2,-1.1879879E-1,-8.125772E-2,1.8356947E-2,7.371812E-2,3.3912737E-2,-4.9480658E-2,3.1951018E-2,9.1727965E-2,5.4661233E-2,9.121075E-2,-7.25727E-2,1.0438184E-2,1.6678028E-1,-1.1705465E-2,6.765429E-2,2.4072804E-2,-4.576747E-2,-1.3887545E-1,1.15487255E-1,2.893719E-2,9.50005E-2,-6.408101E-2,9.126838E-2,1.0950976E-1,1.2331045E-1,8.25774E-2,-1.3363089E-1,5.678451E-2,1.0353669E-1,-1.12816885E-1,1.0745311E-1,1.3816148E-1,9.1907844E-2,2.3685437E-2,7.254528E-2,-2.0678474E-2,2.3195572E-2,-1.8552096E-1,6.4233415E-2,-1.0345711E-1,7.049739E-2,-2.4651743E-3,-4.597784E-2,1.03329316E-1,1.0784372E-1,-4.570205E-2,1.330693E-1,1.1586826E-1,1.2532768E-1,1.1114722E-1,8.801681E-2,-8.455332E-2,8.464923E-2,1.1793865E-1,-9.901227E-2,7.6988444E-2,1.0250076E-1,1.208033E-1,-1.730491E-2,6.9063276E-2,9.9415794E-2,3.2623734E-2],"categories":[],"categories_nodes":[],"categories_segments":[],"categories_sizes":[],"default_left":[0,0,0,0,0,0,0,0,0,0,0,0,0,0,0,0,0,0,0,0,0,0,0,0,0,0,0,0,0,0,0,0,0,0,0,0,0,0,0,0,0,0,0,0,0,0,0,0,0,0,0,0,0,0,0,0,0,0,0,0,0,0,0,0,0,0,0,0,0,0,0,0,0,0,0,0,0,0,0,0,0,0,0,0,0,0,0,0,0,0,0,0,0,0,0,0,0,0,0,0,0,0,0,0,0,0,0,0,0,0,0,0,0,0,0,0,0,0,0,0,0,0,0,0,0,0,0,0,0,0,0,0,0,0,0,0,0,0,0,0,0,0,0,0,0,0,0,0,0,0,0,0,0],"id":8,"left_children":[1,3,5,-1,7,9,11,13,15,17,19,21,23,-1,-1,25,27,29,31,33,35,37,39,41,43,45,47,-1,-1,49,51,53,55,57,59,61,63,65,67,69,71,73,75,77,79,81,83,85,87,89,91,93,95,97,99,101,103,105,107,109,111,113,115,117,119,121,123,125,127,129,131,133,135,137,139,141,143,145,147,149,151,-1,-1,-1,-1,-1,-1,-1,-1,-1,-1,-1,-1,-1,-1,-1,-1,-1,-1,-1,-1,-1,-1,-1,-1,-1,-1,-1,-1,-1,-1,-1,-1,-1,-1,-1,-1,-1,-1,-1,-1,-1,-1,-1,-1,-1,-1,-1,-1,-1,-1,-1,-1,-1,-1,-1,-1,-1,-1,-1,-1,-1,-1,-1,-1,-1,-1,-1,-1,-1,-1,-1,-1],"loss_changes":[3.597828E4,6.834492E3,3.8448477E3,0E0,5.830937E3,2.6178005E3,1.1812109E2,3.3671875E0,1.1669592E4,1.5495015E3,6.658428E2,9.4254395E1,2.249707E1,0E0,0E0,2.2685059E2,4.665039E0,6.921366E2,2.8067725E2,4.2474097E2,8.055371E1,4.4156006E1,3.2097E1,9.814453E0,3.0740356E1,2.38969E2,9.482178E0,0E0,0E0,2.4499908E2,6.70085E1,1.3131958E2,6.848385E1,3.5015253E2,1.8006348E1,2.371045E1,4.1710876E1,2.0412598E1,1.7195171E1,3.0903465E1,1.6772293E1,6.1083984E0,5.9577026E0,4.0198975E0,2.0273193E1,1.7652426E2,5.6458984E1,5.2388916E0,1.8656006E0,1.928912E2,2.336316E1,3.513745E1,3.242459E1,8.781549E1,3.9502808E1,3.582885E1,2.9814636E2,1.24268585E2,4.3801743E1,3.125183E0,4.8310425E1,2.0096191E1,2.7266846E0,4.3925392E1,3.0821411E1,1.6691406E1,1.7146225E1,1.4215643E1,1.0529744E1,4.9140797E0,2.2397135E1,1.1038803E1,1.6896744E1,4.3217773E0,1.6035156E0,1.0657143E1,2.3822937E0,5.584298E0,3.5285645E0,1.2836802E1,7.5522156E0,0E0,0E0,0E0,0E0,0E0,0E0,0E0,0E0,0E0,0E0,0E0,0E0,0E0,0E0,0E0,0E0,0E0,0E0,0E0,0E0,0E0,0E0,0E0,0E0,0E0,0E0,0E0,0E0,0E0,0E0,0E0,0E0,0E0,0E0,0E0,0E0,0E0,0E0,0E0,0E0,0E0,0E0,0E0,0E0,0E0,0E0,0E0,0E0,0E0,0E0,0E0,0E0,0E0,0E0,0E0,0E0,0E0,0E0,0E0,0E0,0E0,0E0,0E0,0E0,0E0,0E0,0E0,0E0,0E0,0E0,0E0,0E0],"parents":[2147483647,0,0,1,1,2,2,4,4,5,5,6,6,7,7,8,8,9,9,10,10,11,11,12,12,15,15,16,16,17,17,18,18,19,19,20,20,21,21,22,22,23,23,24,24,25,25,26,26,29,29,30,30,31,31,32,32,33,33,34,34,35,35,36,36,37,37,38,38,39,39,40,40,41,41,42,42,43,43,44,44,45,45,46,46,47,47,48,48,49,49,50,50,51,51,52,52,53,53,54,54,55,55,56,56,57,57,58,58,59,59,60,60,61,61,62,62,63,63,64,64,65,65,66,66,67,67,68,68,69,69,70,70,71,71,72,72,73,73,74,74,75,75,76,76,77,77,78,78,79,79,80,80],"right_children":[2,4,6,-1,8,10,12,14,16,18,20,22,24,-1,-1,26,28,30,32,34,36,38,40,42,44,46,48,-1,-1,50,52,54,56,58,60,62,64,66,68,70,72,74,76,78,80,82,84,86,88,90,92,94,96,98,100,102,104,106,108,110,112,114,116,118,120,122,124,126,128,130,132,134,136,138,140,142,144,146,148,150,152,-1,-1,-1,-1,-1,-1,-1,-1,-1,-1,-1,-1,-1,-1,-1,-1,-1,-1,-1,-1,-1,-1,-1,-1,-1,-1,-1,-1,-1,-1,-1,-1,-1,-1,-1,-1,-1,-1,-1,-1,-1,-1,-1,-1,-1,-1,-1,-1,-1,-1,-1,-1,-1,-1,-1,-1,-1,-1,-1,-1,-1,-1,-1,-1,-1,-1,-1,-1,-1,-1,-1,-1],"split_conditions":[4.890462E-1,-1.17354235E-2,-3.761198E-1,-1.2834957E-1,-2.0846237E-1,3.0658257E-1,-2.0846237E-1,-4.6562687E-1,-8.7533385E-2,-4.734303E-1,-4.734303E-1,-3.3272088E-2,1.0899613E0,-1.2808077E-1,-1.3899194E-1,-3.761198E-1,-3.975369E-1,1.1877293E-1,1.5067942E-1,1.1877293E-1,3.555722E-1,1.5849289E0,1.1877293E-1,1.5849289E0,2.5312582E-1,-4.734303E-1,-4.5739043E-1,-1.3983594E-1,-1.3014422E-1,-3.3272088E-2,-3.3272088E-2,-3.4038156E-1,-1.976839E0,9.1059136E-1,7.128959E-1,1.1877293E-1,1.5340223E0,2.4921727E0,-4.4712758E-1,-7.169322E-1,6.4678174E-1,3.0658257E-1,3.0658257E-1,-1.5797296E0,3.0658257E-1,1.1877293E-1,5.60465E-1,3.555722E-1,1.8922681E0,-1.976839E0,-1.8374648E0,-1.976839E0,7.128959E-1,1.1877293E-1,-1.976839E0,1.5340223E0,-1.6595258E0,7.128959E-1,-1.0058311E0,-3.5213646E-1,1.3800361E0,-1.976839E0,2.2216356E0,-1.5715758E0,3.9322164E0,2.0187452E0,3.555722E-1,1.9947144E0,-8.5367566E-1,-1.0011978E0,-2.5910613E-1,-1.5584232E0,7.128959E-1,-1.147128E-1,2.2216356E0,1.6490707E0,1.6149054E0,-8.651799E-1,-1.976839E0,1.1877293E-1,3.5544152E0,3.1624965E-2,1.1232375E-1,1.1445977E-1,5.532319E-2,1.239747E-1,1.0768181E-1,1.3434619E-1,7.4304156E-2,-7.684268E-2,-2.3123335E-2,-1.1879879E-1,-8.125772E-2,1.8356947E-2,7.371812E-2,3.3912737E-2,-4.9480658E-2,3.1951018E-2,9.1727965E-2,5.4661233E-2,9.121075E-2,-7.25727E-2,1.0438184E-2,1.6678028E-1,-1.1705465E-2,6.765429E-2,2.4072804E-2,-4.576747E-2,-1.3887545E-1,1.15487255E-1,2.893719E-2,9.50005E-2,-6.408101E-2,9.126838E-2,1.0950976E-1,1.2331045E-1,8.25774E-2,-1.3363089E-1,5.678451E-2,1.0353669E-1,-1.12816885E-1,1.0745311E-1,1.3816148E-1,9.1907844E-2,2.3685437E-2,7.254528E-2,-2.0678474E-2,2.3195572E-2,-1.8552096E-1,6.4233415E-2,-1.0345711E-1,7.049739E-2,-2.4651743E-3,-4.597784E-2,1.03329316E-1,1.0784372E-1,-4.570205E-2,1.330693E-1,1.1586826E-1,1.2532768E-1,1.1114722E-1,8.801681E-2,-8.455332E-2,8.464923E-2,1.1793865E-1,-9.901227E-2,7.6988444E-2,1.0250076E-1,1.208033E-1,-1.730491E-2,6.9063276E-2,9.9415794E-2,3.2623734E-2],"split_indices":[5,5,6,0,2,2,2,16,2,13,13,11,11,0,0,6,15,1,0,1,0,0,1,0,0,13,16,0,0,11,11,2,17,11,9,1,10,5,14,16,0,2,2,4,2,1,0,0,0,17,14,17,9,1,17,10,17,9,17,17,0,17,2,4,16,5,0,0,2,0,0,4,9,2,2,15,0,0,17,1,15,0,0,0,0,0,0,0,0,0,0,0,0,0,0,0,0,0,0,0,0,0,0,0,0,0,0,0,0,0,0,0,0,0,0,0,0,0,0,0,0,0,0,0,0,0,0,0,0,0,0,0,0,0,0,0,0,0,0,0,0,0,0,0,0,0,0,0,0,0,0,0,0],"split_type":[0,0,0,0,0,0,0,0,0,0,0,0,0,0,0,0,0,0,0,0,0,0,0,0,0,0,0,0,0,0,0,0,0,0,0,0,0,0,0,0,0,0,0,0,0,0,0,0,0,0,0,0,0,0,0,0,0,0,0,0,0,0,0,0,0,0,0,0,0,0,0,0,0,0,0,0,0,0,0,0,0,0,0,0,0,0,0,0,0,0,0,0,0,0,0,0,0,0,0,0,0,0,0,0,0,0,0,0,0,0,0,0,0,0,0,0,0,0,0,0,0,0,0,0,0,0,0,0,0,0,0,0,0,0,0,0,0,0,0,0,0,0,0,0,0,0,0,0,0,0,0,0,0],"sum_hessian":[5.9302863E4,2.8049195E4,3.1253668E4,1.5037298E4,1.3011897E4,1.8491957E4,1.2761712E4,4.0228103E3,8.989088E3,9.040929E3,9.451028E3,2.7605999E3,1.0001112E4,3.5428062E3,4.8000424E2,5.656038E3,3.3330493E3,4.7885356E3,4.2523936E3,4.1049E3,5.346128E3,2.418513E3,3.4208688E2,8.815887E3,1.1852252E3,3.2364768E3,2.4195613E3,9.617758E2,2.3712734E3,3.9177034E3,8.7083203E2,3.3264504E3,9.259429E2,2.9956104E3,1.1092898E3,4.6257437E3,7.203845E2,2.318681E3,9.983208E1,1.8834305E2,1.5374385E2,8.45889E3,3.5699692E2,9.120734E2,2.7315176E2,1.3670452E3,1.8694318E3,1.3908031E3,1.0287583E3,3.1999673E3,7.17736E2,6.85901E2,1.84931E2,1.6264894E3,1.699961E3,2.345822E2,6.913607E2,2.6428674E3,3.527429E2,6.4111053E2,4.681792E2,3.5264253E3,1.0993181E3,3.8972134E2,3.306632E2,2.0324349E3,2.8624585E2,9.1469086E1,8.36299E0,2.112601E1,1.6721704E2,1.2512822E2,2.861563E1,1.9403467E3,6.5185435E3,9.601471E1,2.609822E2,1.2252559E1,8.9982086E2,6.766806E1,2.0548372E2,9.947596E2,3.7228564E2,1.6877837E3,1.8164798E2,1.0619541E3,3.2884897E2,1.0195145E3,9.243734E0,9.50996E2,2.2489714E3,4.274381E2,2.9029794E2,1.465402E2,5.393608E2,9.686778E1,8.806322E1,1.325044E3,3.0144547E2,3.8939645E2,1.3105646E3,1.5755562E2,7.702658E1,1.105413E2,5.808194E2,1.1961357E3,1.4467318E3,2.9204004E2,6.0702835E1,6.361243E2,4.9861927E0,4.4890778E2,1.9271448E1,8.336423E2,2.692783E3,1.0742365E3,2.5081686E1,1.1590307E1,3.7813104E2,3.2472382E2,5.9393935E0,1.8213286E3,2.1110634E2,2.4183064E2,4.4415222E1,7.07752E1,2.069389E1,4.1126204E0,4.2503705E0,1.248466E0,1.9877544E1,8.4730415E1,8.248662E1,4.623528E0,1.2050469E2,1.0470585E1,1.8145044E1,2.1629309E2,1.7240536E3,6.358061E3,1.6048247E2,9.3053215E1,2.9614966E0,3.7791424E1,2.231908E2,1.2390302E0,1.1013529E1,1.8272713E2,7.1709375E2,3.1281237E1,3.638682E1,1.8549857E2,1.9985147E1],"tree_param":{"num_deleted":"0","num_feature":"18","num_nodes":"153","size_leaf_vector":"1"}},{"base_weights":[-2.4808822E-3,6.937639E-1,-7.9890007E-1,2.2529028E-1,8.674075E-1,-1.249326E-1,-2.8419134E-1,6.829462E-2,7.8019506E-1,7.615176E-1,1.1231933E0,-1.2585053E0,1.456135E-1,-1.8769321E-1,4.0987843E-1,6.347433E-1,9.9433464E-1,5.6494975E-1,9.623408E-1,1.1496922E0,9.6183586E-1,-1.2469884E-1,-1.338784E-1,9.778718E-1,-1.289191E0,-7.450516E-2,-7.0513177E-1,4.886936E-1,-2.2022843E-2,7.0842427E-1,1.9606893E-1,1.0006816E0,-2.4711587E-1,2.330927E-1,6.9620997E-1,7.465238E-1,1.0339222E0,1.0671707E0,1.1741488E0,6.27979E-1,1.040882E0,8.7848467E-1,1.2039098E0,-1.346529E-1,-1.2649512E-1,2.756068E-2,-5.961613E-1,-7.2061026E-1,1.7044441E-1,4.079835E-1,1.4935653E-1,-4.53546E-1,3.5120937E-1,3.1787187E-1,8.474091E-1,3.0285272E-1,-1.3872042E0,8.2080054E-1,1.0478038E0,-8.514014E-2,4.9702015E-2,1.6643204E-1,1.1397475E-1,7.6386636E-1,2.3354928E-1,1.3670355E-1,6.7298543E-1,8.998988E-1,1.073588E0,1.1003889E0,8.2886475E-1,1.1092218E0,1.191033E0,7.7117866E-1,-9.038311E-1,1.0594469E0,6.148631E-1,9.370101E-1,7.6229095E-2,1.144456E0,1.2749871E0,-1.03042675E-2,1.8563038E-1,-7.522788E-2,-1.3077055E-2,-8.80409E-2,-4.9562026E-2,5.0465938E-2,-2.52767E-2,4.5039628E-2,-5.9013885E-2,1.5033315E-1,-1.7788587E-2,4.4925928E-2,-4.3186944E-2,1.363046E-1,6.4357415E-2,6.505224E-2,-1.4583017E-2,-1.6547486E-1,2.7419481E-2,9.106638E-2,3.0551339E-2,1.2894855E-1,9.596173E-2,2.367141E-2,-4.5266945E-2,7.91431E-2,-5.15417E-3,3.4100447E-2,-3.9303202E-2,7.4980624E-2,2.7054882E-2,4.390165E-2,9.140607E-2,1.2944575E-1,9.970208E-2,1.06464766E-1,1.2912974E-1,1.0599112E-1,5.8936007E-2,1.162611E-1,1.0524517E-1,1.263679E-1,1.162218E-1,3.0667132E-2,8.750232E-2,7.574134E-2,-1.093419E-1,8.9596815E-2,1.1084105E-1,7.75992E-2,-1.2070111E-2,7.941574E-2,1.1393791E-1,1.565706E-2,-1.4145869E-1,1.1609329E-1,8.8433295E-2,1.3300262E-1,1.2111962E-1],"categories":[],"categories_nodes":[],"categories_segments":[],"categories_sizes":[],"default_left":[0,0,0,0,0,0,0,0,0,0,0,0,0,0,0,0,0,0,0,0,0,0,0,0,0,0,0,0,0,0,0,0,0,0,0,0,0,0,0,0,0,0,0,0,0,0,0,0,0,0,0,0,0,0,0,0,0,0,0,0,0,0,0,0,0,0,0,0,0,0,0,0,0,0,0,0,0,0,0,0,0,0,0,0,0,0,0,0,0,0,0,0,0,0,0,0,0,0,0,0,0,0,0,0,0,0,0,0,0,0,0,0,0,0,0,0,0,0,0,0,0,0,0,0,0,0,0,0,0,0,0,0,0,0,0,0,0,0,0,0,0],"id":9,"left_children":[1,3,5,7,9,-1,11,13,15,17,19,21,23,25,27,29,31,33,35,37,39,-1,-1,41,43,45,47,49,51,53,55,57,59,61,63,65,67,69,71,73,75,77,79,-1,-1,81,83,85,-1,87,-1,89,91,93,95,97,99,101,103,-1,-1,-1,105,107,109,-1,111,113,115,117,119,121,123,125,127,129,131,133,135,137,139,-1,-1,-1,-1,-1,-1,-1,-1,-1,-1,-1,-1,-1,-1,-1,-1,-1,-1,-1,-1,-1,-1,-1,-1,-1,-1,-1,-1,-1,-1,-1,-1,-1,-1,-1,-1,-1,-1,-1,-1,-1,-1,-1,-1,-1,-1,-1,-1,-1,-1,-1,-1,-1,-1,-1,-1,-1,-1,-1,-1],"loss_changes":[3.114643E4,2.4377715E3,6.0738496E3,7.0611316E2,5.913594E2,0E0,5.121198E3,5.526531E2,5.5044067E1,6.100029E2,2.6257324E1,1.7924805E0,1.0135186E4,2.1155188E2,9.217227E1,3.4356293E1,5.930603E0,3.4040796E2,1.1739453E2,9.82959E0,2.33302E1,0E0,0E0,1.1961621E2,2.6269531E0,1.5791577E2,2.540979E1,1.8508832E2,6.7606186E1,4.930945E1,2.6602005E1,5.224121E0,2.4335227E0,3.7785684E2,1.7517578E2,8.617749E1,2.9554688E1,9.113159E0,3.3120117E0,3.941433E1,5.1484985E0,1.7528418E2,5.461914E0,0E0,0E0,5.928206E2,3.5164185E1,2.275058E1,0E0,1.356008E2,0E0,2.430043E1,1.3749452E2,2.3966534E1,6.986325E1,2.2853743E1,4.882618E0,6.835106E0,1.0808289E1,0E0,0E0,0E0,1.4255684E2,1.0987988E2,4.8350555E1,0E0,5.2614685E1,8.196777E0,7.3541504E1,6.1883545E0,8.173111E0,1.4641113E0,5.5234375E0,7.543831E0,5.725726E0,4.6204834E0,4.0054216E0,9.971973E1,3.0766218E1,2.8377686E0,9.7753906E-1,0E0,0E0,0E0,0E0,0E0,0E0,0E0,0E0,0E0,0E0,0E0,0E0,0E0,0E0,0E0,0E0,0E0,0E0,0E0,0E0,0E0,0E0,0E0,0E0,0E0,0E0,0E0,0E0,0E0,0E0,0E0,0E0,0E0,0E0,0E0,0E0,0E0,0E0,0E0,0E0,0E0,0E0,0E0,0E0,0E0,0E0,0E0,0E0,0E0,0E0,0E0,0E0,0E0,0E0,0E0,0E0,0E0,0E0,0E0,0E0],"parents":[2147483647,0,0,1,1,2,2,3,3,4,4,6,6,7,7,8,8,9,9,10,10,11,11,12,12,13,13,14,14,15,15,16,16,17,17,18,18,19,19,20,20,23,23,24,24,25,25,26,26,27,27,28,28,29,29,30,30,31,31,32,32,33,33,34,34,35,35,36,36,37,37,38,38,39,39,40,40,41,41,42,42,45,45,46,46,47,47,49,49,51,51,52,52,53,53,54,54,55,55,56,56,57,57,58,58,62,62,63,63,64,64,66,66,67,67,68,68,69,69,70,70,71,71,72,72,73,73,74,74,75,75,76,76,77,77,78,78,79,79,80,80],"right_children":[2,4,6,8,10,-1,12,14,16,18,20,22,24,26,28,30,32,34,36,38,40,-1,-1,42,44,46,48,50,52,54,56,58,60,62,64,66,68,70,72,74,76,78,80,-1,-1,82,84,86,-1,88,-1,90,92,94,96,98,100,102,104,-1,-1,-1,106,108,110,-1,112,114,116,118,120,122,124,126,128,130,132,134,136,138,140,-1,-1,-1,-1,-1,-1,-1,-1,-1,-1,-1,-1,-1,-1,-1,-1,-1,-1,-1,-1,-1,-1,-1,-1,-1,-1,-1,-1,-1,-1,-1,-1,-1,-1,-1,-1,-1,-1,-1,-1,-1,-1,-1,-1,-1,-1,-1,-1,-1,-1,-1,-1,-1,-1,-1,-1,-1,-1,-1,-1],"split_conditions":[-3.467444E-1,-2.0846237E-1,-1.17354235E-2,1.1877293E-1,1.1877293E-1,-1.249326E-1,-2.0846237E-1,-4.734303E-1,-4.734303E-1,-4.734303E-1,-3.3272088E-2,-4.6562687E-1,-8.7533385E-2,-3.3272088E-2,-1.0058311E0,-1.0058311E0,-2.5289146E-2,3.0658257E-1,3.0658257E-1,3.0658257E-1,1.7725594E-1,-1.2469884E-1,-1.338784E-1,1.1877293E-1,-3.975369E-1,-1.0064969E0,7.5472647E-1,-1.3287847E0,-9.8945653E-1,-1.976839E0,-4.4712758E-1,-1.976839E0,-1.6614506E0,-1.147128E-1,1.0899613E0,-1.147128E-1,-1.976839E0,2.746786E-1,-1.976839E0,2.4921727E0,-6.789838E-1,-3.3272088E-2,-4.5739043E-1,-1.346529E-1,-1.2649512E-1,-1.6614506E0,2.0187452E0,-1.8374648E0,1.7044441E-1,-1.3326784E0,1.4935653E-1,-1.282887E0,-6.789838E-1,2.4921727E0,-1.6595258E0,-7.6369846E-1,4.980837E0,-9.160811E-1,-1.6595258E0,-8.514014E-2,4.9702015E-2,1.6643204E-1,2.746786E-1,2.2216356E0,-1.0058311E0,1.3670355E-1,2.746786E-1,-1.5715758E0,-1.6595258E0,1.7725594E-1,-1.5678431E-1,-1.5678431E-1,-1.6595258E0,-1.976839E0,-1.2659982E-1,-1.976839E0,1.9727458E0,-4.5739043E-1,1.3035573E0,8.4713775E-1,-3.120514E-1,-1.03042675E-2,1.8563038E-1,-7.522788E-2,-1.3077055E-2,-8.80409E-2,-4.9562026E-2,5.0465938E-2,-2.52767E-2,4.5039628E-2,-5.9013885E-2,1.5033315E-1,-1.7788587E-2,4.4925928E-2,-4.3186944E-2,1.363046E-1,6.4357415E-2,6.505224E-2,-1.4583017E-2,-1.6547486E-1,2.7419481E-2,9.106638E-2,3.0551339E-2,1.2894855E-1,9.596173E-2,2.367141E-2,-4.5266945E-2,7.91431E-2,-5.15417E-3,3.4100447E-2,-3.9303202E-2,7.4980624E-2,2.7054882E-2,4.390165E-2,9.140607E-2,1.2944575E-1,9.970208E-2,1.06464766E-1,1.2912974E-1,1.0599112E-1,5.8936007E-2,1.162611E-1,1.0524517E-1,1.263679E-1,1.162218E-1,3.0667132E-2,8.750232E-2,7.574134E-2,-1.093419E-1,8.9596815E-2,1.1084105E-1,7.75992E-2,-1.2070111E-2,7.941574E-2,1.1393791E-1,1.565706E-2,-1.4145869E-1,1.1609329E-1,8.8433295E-2,1.3300262E-1,1.2111962E-1],"split_indices":[3,2,5,1,1,0,2,13,13,13,11,16,2,11,17,17,17,2,2,2,2,0,0,1,15,3,16,17,17,17,14,17,3,2,11,2,17,2,17,5,17,11,16,0,0,3,5,14,0,17,0,2,17,5,17,2,8,14,17,0,0,0,2,2,17,0,2,4,17,2,12,12,17,17,2,17,5,16,4,14,16,0,0,0,0,0,0,0,0,0,0,0,0,0,0,0,0,0,0,0,0,0,0,0,0,0,0,0,0,0,0,0,0,0,0,0,0,0,0,0,0,0,0,0,0,0,0,0,0,0,0,0,0,0,0,0,0,0,0,0,0],"split_type":[0,0,0,0,0,0,0,0,0,0,0,0,0,0,0,0,0,0,0,0,0,0,0,0,0,0,0,0,0,0,0,0,0,0,0,0,0,0,0,0,0,0,0,0,0,0,0,0,0,0,0,0,0,0,0,0,0,0,0,0,0,0,0,0,0,0,0,0,0,0,0,0,0,0,0,0,0,0,0,0,0,0,0,0,0,0,0,0,0,0,0,0,0,0,0,0,0,0,0,0,0,0,0,0,0,0,0,0,0,0,0,0,0,0,0,0,0,0,0,0,0,0,0,0,0,0,0,0,0,0,0,0,0,0,0,0,0,0,0,0,0],"sum_hessian":[5.6168016E4,2.9968826E4,2.619919E4,8.1048955E3,2.1863932E4,1.3971333E4,1.2227855E4,6.3183955E3,1.7865001E3,1.5465511E4,6.3984204E3,3.7423918E3,8.485464E3,3.6119778E3,2.7064177E3,1.066236E3,7.2026416E2,7.8174863E3,7.648024E3,5.490599E3,9.078212E2,3.2873171E3,4.5507455E2,5.3705786E3,3.1148853E3,2.9646204E3,6.4735736E2,2.2886445E3,4.1777307E2,9.1237573E2,1.538602E2,7.167934E2,3.470737E0,2.2164783E3,5.6010083E3,1.9077173E3,5.7403066E3,1.265424E3,4.2251753E3,1.7550554E2,7.3231573E2,3.7337603E3,1.6368185E3,9.0934265E2,2.2055427E3,2.4802822E3,4.8433817E2,6.4392194E2,3.435457E0,2.1197915E3,1.688531E2,1.9365643E2,2.2411662E2,2.4032918E2,6.720466E2,1.4489638E2,8.963813E0,1.5261778E2,5.6417566E2,1.835802E0,1.634935E0,1.6930235E2,2.047176E3,4.885879E3,7.151291E2,2.0026923E2,1.7074481E3,1.316337E3,4.4239697E3,1.1074376E3,1.5798633E2,8.857601E2,3.339415E3,1.6095535E2,1.4550184E1,7.003108E2,3.200489E1,3.4797415E3,2.540189E2,9.0059955E2,7.362189E2,2.3158357E3,1.6444641E2,3.62215E2,1.2212317E2,3.748046E2,2.6911734E2,1.8494331E3,2.7035834E2,2.5120039E1,1.6853639E2,6.995218E1,1.5416444E2,2.0483408E2,3.5495102E1,1.8878764E2,4.8325894E2,8.1384415E1,6.3511967E1,7.72398E0,1.2398329E0,1.293011E2,2.331669E1,1.4718417E2,4.1699146E2,1.6831709E3,3.6400504E2,4.726143E3,1.5973613E2,6.108308E2,1.0429826E2,1.4330342E3,2.744139E2,4.019601E1,1.2761411E3,1.1347399E3,3.28923E3,9.383416E2,1.6909602E2,7.8669586E1,7.931674E1,4.4643427E2,4.3932584E2,9.3622577E2,2.4031895E3,3.0130735E1,1.3082462E2,1.1836358E0,1.3366549E1,1.658548E2,5.34456E2,2.620877E1,5.796119E0,2.042711E3,1.4370304E3,2.418788E2,1.2140103E1,8.436946E2,5.6904957E1,3.845647E2,3.5165417E2],"tree_param":{"num_deleted":"0","num_feature":"18","num_nodes":"141","size_leaf_vector":"1"}},{"base_weights":[-7.6295173E-4,-7.734847E-1,6.523051E-1,-1.2200546E-1,-2.7353624E-1,3.658358E-1,1.0850284E0,-1.2278956E0,1.3815759E-1,1.5360503E-2,7.0418775E-1,9.558543E-1,1.1587114E0,-1.2179673E-1,-1.2969323E-1,9.1942424E-1,-1.2541466E0,-2.9996517E-1,3.9777467E-1,3.8398603E-1,9.2650074E-1,1.043377E0,7.170021E-1,1.1774273E0,1.0691644E0,7.352774E-1,1.1766694E0,-1.3028944E-1,-1.2334601E-1,-4.4662052E-1,3.7330955E-1,2.1603304E-1,9.2697656E-1,5.6520975E-1,7.590218E-3,9.7024363E-1,4.289296E-1,1.0798645E0,7.883254E-1,8.1073904E-1,1.5513887E-1,1.188765E0,1.0944632E0,1.1019369E0,7.947983E-1,4.182856E-1,9.797206E-1,1.2172078E0,1.0880448E0,-3.3593056E-1,-9.651919E-1,6.1109984E-1,8.039004E-2,3.254865E-1,-5.8116776E-1,1.0493194E0,7.618535E-1,4.0356478E-1,7.6817906E-1,-1.0198932E-1,6.5565395E-1,9.1961974E-1,1.1384046E0,6.4447455E-2,8.5870576E-1,1.1251522E0,9.499059E-1,8.900787E-1,3.508039E-2,2.7047208E-1,8.528644E-1,2.7575552E-1,-8.028868E-1,1.2019135E-1,1.1533141E0,9.91633E-1,1.1710447E0,1.1053934E0,3.7109146E-1,9.1319644E-1,2.0491274E-1,1.1781997E-2,8.273832E-2,1.0656645E-1,5.489554E-2,1.2190342E-1,4.693238E-2,1.13411024E-1,7.825141E-2,-5.279646E-3,-5.1565696E-2,-6.806694E-2,-1.11251295E-1,2.436395E-2,7.307183E-2,2.704067E-2,-8.180253E-2,5.205382E-2,4.819591E-3,-1.6669605E-2,-8.9030415E-2,1.05628684E-1,-8.06218E-3,9.024077E-2,-7.772258E-3,4.635526E-2,-3.350226E-2,8.5779004E-2,1.9726904E-2,-1.00577906E-1,-4.6286965E-3,4.3245796E-2,1.00737296E-1,9.710943E-2,7.259883E-2,-4.2306115E-3,1.1400863E-1,1.325074E-2,-1.4330147E-1,9.026064E-2,-1.4344756E-1,5.513093E-2,1.13082625E-1,8.477602E-2,1.10247195E-1,1.7171241E-2,9.848076E-2,-6.1857726E-2,4.9067102E-2,5.40795E-2,-6.4239465E-2,1.3907425E-1,8.209393E-2,6.635812E-2,-4.7233622E-4,-1.3669859E-1,-1.7085748E-2,1.1180854E-1,1.20371774E-1,1.01677835E-1,-1.761834E-2,3.8873877E-2,1.1750751E-1,1.11145E-1,7.859293E-2,8.6719505E-2,-8.473484E-2,9.769345E-2,9.9007925E-3,-1.204715E-1,4.117053E-2],"categories":[],"categories_nodes":[],"categories_segments":[],"categories_sizes":[],"default_left":[0,0,0,0,0,0,0,0,0,0,0,0,0,0,0,0,0,0,0,0,0,0,0,0,0,0,0,0,0,0,0,0,0,0,0,0,0,0,0,0,0,0,0,0,0,0,0,0,0,0,0,0,0,0,0,0,0,0,0,0,0,0,0,0,0,0,0,0,0,0,0,0,0,0,0,0,0,0,0,0,0,0,0,0,0,0,0,0,0,0,0,0,0,0,0,0,0,0,0,0,0,0,0,0,0,0,0,0,0,0,0,0,0,0,0,0,0,0,0,0,0,0,0,0,0,0,0,0,0,0,0,0,0,0,0,0,0,0,0,0,0,0,0,0,0,0,0,0,0,0,0],"id":10,"left_children":[1,3,5,-1,7,9,11,13,15,17,19,21,23,-1,-1,25,27,29,31,33,35,37,39,41,43,45,47,-1,-1,49,51,53,55,57,59,61,63,65,67,69,71,73,75,77,79,81,83,85,87,89,91,93,95,97,99,101,103,105,107,109,111,113,115,117,119,121,123,125,127,129,131,133,135,-1,137,139,141,143,145,147,149,-1,-1,-1,-1,-1,-1,-1,-1,-1,-1,-1,-1,-1,-1,-1,-1,-1,-1,-1,-1,-1,-1,-1,-1,-1,-1,-1,-1,-1,-1,-1,-1,-1,-1,-1,-1,-1,-1,-1,-1,-1,-1,-1,-1,-1,-1,-1,-1,-1,-1,-1,-1,-1,-1,-1,-1,-1,-1,-1,-1,-1,-1,-1,-1,-1,-1,-1,-1,-1,-1],"loss_changes":[2.6857742E4,5.442255E3,3.575162E3,0E0,4.5196255E3,2.0581743E3,1.0824121E2,7.963867E-1,8.743463E3,1.0282825E3,6.28271E2,8.660742E1,1.0993164E1,0E0,0E0,2.4303564E2,1.3066406E0,4.6164618E2,3.7044537E2,2.4695337E2,1.1301172E2,2.7587402E1,5.9060852E1,4.3779297E0,1.0586304E1,2.3231165E2,6.387207E0,0E0,0E0,2.1999176E2,5.8215973E1,2.5060622E2,1.909607E1,7.9868774E1,8.369662E1,3.9726074E1,6.619349E1,1.46501465E1,2.9566452E1,2.1683105E1,1.8931126E1,1.0844727E0,